tree
version=v4
num_class=1
num_tree_per_iteration=1
label_index=0
max_feature_idx=834
objective=regression
feature_names=Column_0 Column_1 Column_2 Column_3 Column_4 Column_5 Column_6 Column_7 Column_8 Column_9 Column_10 Column_11 Column_12 Column_13 Column_14 Column_15 Column_16 Column_17 Column_18 Column_19 Column_20 Column_21 Column_22 Column_23 Column_24 Column_25 Column_26 Column_27 Column_28 Column_29 Column_30 Column_31 Column_32 Column_33 Column_34 Column_35 Column_36 Column_37 Column_38 Column_39 Column_40 Column_41 Column_42 Column_43 Column_44 Column_45 Column_46 Column_47 Column_48 Column_49 Column_50 Column_51 Column_52 Column_53 Column_54 Column_55 Column_56 Column_57 Column_58 Column_59 Column_60 Column_61 Column_62 Column_63 Column_64 Column_65 Column_66 Column_67 Column_68 Column_69 Column_70 Column_71 Column_72 Column_73 Column_74 Column_75 Column_76 Column_77 Column_78 Column_79 Column_80 Column_81 Column_82 Column_83 Column_84 Column_85 Column_86 Column_87 Column_88 Column_89 Column_90 Column_91 Column_92 Column_93 Column_94 Column_95 Column_96 Column_97 Column_98 Column_99 Column_100 Column_101 Column_102 Column_103 Column_104 Column_105 Column_106 Column_107 Column_108 Column_109 Column_110 Column_111 Column_112 Column_113 Column_114 Column_115 Column_116 Column_117 Column_118 Column_119 Column_120 Column_121 Column_122 Column_123 Column_124 Column_125 Column_126 Column_127 Column_128 Column_129 Column_130 Column_131 Column_132 Column_133 Column_134 Column_135 Column_136 Column_137 Column_138 Column_139 Column_140 Column_141 Column_142 Column_143 Column_144 Column_145 Column_146 Column_147 Column_148 Column_149 Column_150 Column_151 Column_152 Column_153 Column_154 Column_155 Column_156 Column_157 Column_158 Column_159 Column_160 Column_161 Column_162 Column_163 Column_164 Column_165 Column_166 Column_167 Column_168 Column_169 Column_170 Column_171 Column_172 Column_173 Column_174 Column_175 Column_176 Column_177 Column_178 Column_179 Column_180 Column_181 Column_182 Column_183 Column_184 Column_185 Column_186 Column_187 Column_188 Column_189 Column_190 Column_191 Column_192 Column_193 Column_194 Column_195 Column_196 Column_197 Column_198 Column_199 Column_200 Column_201 Column_202 Column_203 Column_204 Column_205 Column_206 Column_207 Column_208 Column_209 Column_210 Column_211 Column_212 Column_213 Column_214 Column_215 Column_216 Column_217 Column_218 Column_219 Column_220 Column_221 Column_222 Column_223 Column_224 Column_225 Column_226 Column_227 Column_228 Column_229 Column_230 Column_231 Column_232 Column_233 Column_234 Column_235 Column_236 Column_237 Column_238 Column_239 Column_240 Column_241 Column_242 Column_243 Column_244 Column_245 Column_246 Column_247 Column_248 Column_249 Column_250 Column_251 Column_252 Column_253 Column_254 Column_255 Column_256 Column_257 Column_258 Column_259 Column_260 Column_261 Column_262 Column_263 Column_264 Column_265 Column_266 Column_267 Column_268 Column_269 Column_270 Column_271 Column_272 Column_273 Column_274 Column_275 Column_276 Column_277 Column_278 Column_279 Column_280 Column_281 Column_282 Column_283 Column_284 Column_285 Column_286 Column_287 Column_288 Column_289 Column_290 Column_291 Column_292 Column_293 Column_294 Column_295 Column_296 Column_297 Column_298 Column_299 Column_300 Column_301 Column_302 Column_303 Column_304 Column_305 Column_306 Column_307 Column_308 Column_309 Column_310 Column_311 Column_312 Column_313 Column_314 Column_315 Column_316 Column_317 Column_318 Column_319 Column_320 Column_321 Column_322 Column_323 Column_324 Column_325 Column_326 Column_327 Column_328 Column_329 Column_330 Column_331 Column_332 Column_333 Column_334 Column_335 Column_336 Column_337 Column_338 Column_339 Column_340 Column_341 Column_342 Column_343 Column_344 Column_345 Column_346 Column_347 Column_348 Column_349 Column_350 Column_351 Column_352 Column_353 Column_354 Column_355 Column_356 Column_357 Column_358 Column_359 Column_360 Column_361 Column_362 Column_363 Column_364 Column_365 Column_366 Column_367 Column_368 Column_369 Column_370 Column_371 Column_372 Column_373 Column_374 Column_375 Column_376 Column_377 Column_378 Column_379 Column_380 Column_381 Column_382 Column_383 Column_384 Column_385 Column_386 Column_387 Column_388 Column_389 Column_390 Column_391 Column_392 Column_393 Column_394 Column_395 Column_396 Column_397 Column_398 Column_399 Column_400 Column_401 Column_402 Column_403 Column_404 Column_405 Column_406 Column_407 Column_408 Column_409 Column_410 Column_411 Column_412 Column_413 Column_414 Column_415 Column_416 Column_417 Column_418 Column_419 Column_420 Column_421 Column_422 Column_423 Column_424 Column_425 Column_426 Column_427 Column_428 Column_429 Column_430 Column_431 Column_432 Column_433 Column_434 Column_435 Column_436 Column_437 Column_438 Column_439 Column_440 Column_441 Column_442 Column_443 Column_444 Column_445 Column_446 Column_447 Column_448 Column_449 Column_450 Column_451 Column_452 Column_453 Column_454 Column_455 Column_456 Column_457 Column_458 Column_459 Column_460 Column_461 Column_462 Column_463 Column_464 Column_465 Column_466 Column_467 Column_468 Column_469 Column_470 Column_471 Column_472 Column_473 Column_474 Column_475 Column_476 Column_477 Column_478 Column_479 Column_480 Column_481 Column_482 Column_483 Column_484 Column_485 Column_486 Column_487 Column_488 Column_489 Column_490 Column_491 Column_492 Column_493 Column_494 Column_495 Column_496 Column_497 Column_498 Column_499 Column_500 Column_501 Column_502 Column_503 Column_504 Column_505 Column_506 Column_507 Column_508 Column_509 Column_510 Column_511 Column_512 Column_513 Column_514 Column_515 Column_516 Column_517 Column_518 Column_519 Column_520 Column_521 Column_522 Column_523 Column_524 Column_525 Column_526 Column_527 Column_528 Column_529 Column_530 Column_531 Column_532 Column_533 Column_534 Column_535 Column_536 Column_537 Column_538 Column_539 Column_540 Column_541 Column_542 Column_543 Column_544 Column_545 Column_546 Column_547 Column_548 Column_549 Column_550 Column_551 Column_552 Column_553 Column_554 Column_555 Column_556 Column_557 Column_558 Column_559 Column_560 Column_561 Column_562 Column_563 Column_564 Column_565 Column_566 Column_567 Column_568 Column_569 Column_570 Column_571 Column_572 Column_573 Column_574 Column_575 Column_576 Column_577 Column_578 Column_579 Column_580 Column_581 Column_582 Column_583 Column_584 Column_585 Column_586 Column_587 Column_588 Column_589 Column_590 Column_591 Column_592 Column_593 Column_594 Column_595 Column_596 Column_597 Column_598 Column_599 Column_600 Column_601 Column_602 Column_603 Column_604 Column_605 Column_606 Column_607 Column_608 Column_609 Column_610 Column_611 Column_612 Column_613 Column_614 Column_615 Column_616 Column_617 Column_618 Column_619 Column_620 Column_621 Column_622 Column_623 Column_624 Column_625 Column_626 Column_627 Column_628 Column_629 Column_630 Column_631 Column_632 Column_633 Column_634 Column_635 Column_636 Column_637 Column_638 Column_639 Column_640 Column_641 Column_642 Column_643 Column_644 Column_645 Column_646 Column_647 Column_648 Column_649 Column_650 Column_651 Column_652 Column_653 Column_654 Column_655 Column_656 Column_657 Column_658 Column_659 Column_660 Column_661 Column_662 Column_663 Column_664 Column_665 Column_666 Column_667 Column_668 Column_669 Column_670 Column_671 Column_672 Column_673 Column_674 Column_675 Column_676 Column_677 Column_678 Column_679 Column_680 Column_681 Column_682 Column_683 Column_684 Column_685 Column_686 Column_687 Column_688 Column_689 Column_690 Column_691 Column_692 Column_693 Column_694 Column_695 Column_696 Column_697 Column_698 Column_699 Column_700 Column_701 Column_702 Column_703 Column_704 Column_705 Column_706 Column_707 Column_708 Column_709 Column_710 Column_711 Column_712 Column_713 Column_714 Column_715 Column_716 Column_717 Column_718 Column_719 Column_720 Column_721 Column_722 Column_723 Column_724 Column_725 Column_726 Column_727 Column_728 Column_729 Column_730 Column_731 Column_732 Column_733 Column_734 Column_735 Column_736 Column_737 Column_738 Column_739 Column_740 Column_741 Column_742 Column_743 Column_744 Column_745 Column_746 Column_747 Column_748 Column_749 Column_750 Column_751 Column_752 Column_753 Column_754 Column_755 Column_756 Column_757 Column_758 Column_759 Column_760 Column_761 Column_762 Column_763 Column_764 Column_765 Column_766 Column_767 Column_768 Column_769 Column_770 Column_771 Column_772 Column_773 Column_774 Column_775 Column_776 Column_777 Column_778 Column_779 Column_780 Column_781 Column_782 Column_783 Column_784 Column_785 Column_786 Column_787 Column_788 Column_789 Column_790 Column_791 Column_792 Column_793 Column_794 Column_795 Column_796 Column_797 Column_798 Column_799 Column_800 Column_801 Column_802 Column_803 Column_804 Column_805 Column_806 Column_807 Column_808 Column_809 Column_810 Column_811 Column_812 Column_813 Column_814 Column_815 Column_816 Column_817 Column_818 Column_819 Column_820 Column_821 Column_822 Column_823 Column_824 Column_825 Column_826 Column_827 Column_828 Column_829 Column_830 Column_831 Column_832 Column_833 Column_834
feature_infos=[-0.011204010806977749:0.092188045382499695] [-0.034763067960739136:0.10751228034496307] [-0.062019620090723038:-0.0069156475365161896] [-0.063676707446575165:0.027830913662910461] [-0.031933613121509552:0.037635002285242081] [-0.042302962392568588:0.057752843946218491] [-0.075943067669868469:0.07550174742937088] [-0.081659138202667236:0.038749054074287415] [-0.043788600713014603:0.036258578300476074] [-0.043824069201946259:0.030526785179972649] [0.027632579207420349:0.11260956525802612] [-0.071403443813323975:0.084937125444412231] [-0.05566377192735672:0.017676554620265961] [0.090083777904510498:0.14811010658740997] [-0.029927344992756844:0.056398995220661163] [-0.11096643656492233:-0.014897844754159451] [-0.026034682989120483:0.038568094372749329] [-0.052852876484394073:0.032987084239721298] [-0.050740454345941544:0.043751943856477737] [-0.035764969885349274:0.039669014513492584] [-0.065348207950592041:0.020128849893808365] [-0.046238016337156296:0.043446198105812073] [-0.075829058885574341:0.023164940997958183] [-0.023072566837072372:0.057269364595413208] [-0.071053721010684967:0.006728398147970438] [-0.05490126833319664:0.040401369333267212] [-0.046235024929046631:0.043478574603796005] [-0.028494421392679214:0.066765628755092621] [-0.029614593833684921:0.042840790003538132] [0.0043897512368857861:0.084287635982036591] [-0.017967123538255692:0.075707152485847473] [-0.067773565649986267:0.020435905084013939] [-0.026074452325701714:0.053751002997159958] [-0.046707499772310257:0.056011747568845749] [1.2469282637539436e-06:1.9966373656643555e-06] [-0.032040033489465714:0.032091107219457626] [-0.064589433372020721:0.022805584594607353] [-0.026022026315331459:0.052890811115503311] [-0.062093582004308701:0.055671717971563339] [-0.098232261836528778:0.010305348783731461] [-0.0079909525811672211:0.076211534440517426] [-0.053185801953077316:0.046521052718162537] [-0.031490813940763474:0.053689699620008469] [-0.016144342720508575:0.068871580064296722] [-0.053087417036294937:0.017241448163986206] [-0.04330817237496376:0.067158617079257965] [-0.0087386602535843849:0.083042435348033905] [-0.069531701505184174:0.071358390152454376] [-0.059622928500175476:0.064015090465545654] [-0.05933312326669693:0.041184987872838974] [-0.013636934570968151:0.022759435698390007] [-0.062212422490119934:0.077217869460582733] [-0.10257204622030258:0.026672102510929108] [-0.055938441306352615:0.013318181037902832] [-0.090278409421443939:0.046374242752790451] [-0.087539166212081909:0.032639216631650925] [-0.050915565341711044:0.017650563269853592] [-0.046536602079868317:0.076069273054599762] [-0.016021348536014557:0.088085360825061798] [-0.059708729386329651:0.043862763792276382] [-0.040411338210105896:0.050950028002262115] [-0.058032840490341187:0.034208644181489944] [-0.040983986109495163:0.035425074398517609] [-0.058411009609699249:0.007816794328391552] [0.02022441104054451:0.12645637989044189] [-0.01666673831641674:0.095104791224002838] [-0.047423537820577621:0.091973848640918732] [-0.068640299141407013:0.031877979636192322] [-0.04011150449514389:0.041031349450349808] [-0.098197385668754578:0.022638622671365738] [-0.019146215170621872:0.13627307116985321] [-0.068186618387699127:0.039757803082466125] [-0.060764048248529434:0.029483988881111145] [-0.018471637740731239:0.080258965492248535] [-0.03183293342590332:0.060810573399066925] [-0.031976759433746338:0.098640911281108856] [-0.054902773350477219:0.046887889504432678] [-0.055190857499837875:0.032862011343240738] [-0.043097935616970062:0.020448267459869385] [-0.029963243752717972:0.037171993404626846] [-0.087128378450870514:0.022464731708168983] [-0.024422319605946541:0.088593378663063049] [-0.073487803339958191:0.0090782986953854561] [-0.074266321957111359:0.040413007140159607] [-0.065644674003124237:0.033388774842023849] [-0.028033008798956871:0.1097596064209938] [-0.051832742989063263:0.015168214216828346] [-0.05483211949467659:0.039018068462610245] [-0.041582006961107254:0.056569155305624008] [-0.067725412547588348:0.074612312018871307] [-0.033721666783094406:0.11444249004125595] [-0.047738693654537201:0.0436357781291008] [-0.014162603765726089:0.069015637040138245] [-0.033436108380556107:0.038205280900001526] [-0.12270098179578781:-0.021758729591965675] [-0.050268411636352539:0.0040989597328007221] [-0.019194874912500381:0.089515350759029388] [-0.070605598390102386:0.033459343016147614] [-0.073076024651527405:0.078681357204914093] [-0.031096413731575012:0.066913209855556488] [-0.035814907401800156:0.05766349658370018] [-0.01914183609187603:0.0422353595495224] [-0.031772445887327194:0.098323337733745575] [0.011792468838393688:0.085422240197658539] [-0.072269134223461151:0.059183713048696518] [-0.051338262856006622:0.041670110076665878] [-0.066733255982398987:0.067840538918972015] [-0.039513528347015381:0.054024592041969299] [-0.047957256436347961:0.043231777846813202] [-0.081599175930023193:0.021964730694890022] [-0.056703731417655945:0.031558133661746979] [-0.051719270646572113:0.021571828052401543] [-0.081735916435718536:0.021443147212266922] [-0.03929375484585762:0.055870402604341507] [-0.031941920518875122:0.055462710559368134] [-0.040902484208345413:0.076115682721138] [-0.033248856663703918:0.047145504504442215] [-0.0057633169926702976:0.072645030915737152] [-0.07084762305021286:0.040306001901626587] [-0.012000097893178463:0.063214361667633057] [-0.052118692547082901:0.068673945963382721] [0.015360826626420021:0.10437736660242081] [-0.032615005970001221:0.040986824780702591] [-0.011386141180992126:0.098045036196708679] [-0.077532403171062469:0.006179452408105135] [-0.062818616628646851:0.025419028475880623] [-0.062467809766530991:0.015638837590813637] [-0.0067178672179579735:0.051908168941736221] [-0.0093225687742233276:0.066153474152088165] [-0.050537388771772385:0.06357826292514801] [-0.028529755771160126:0.054379552602767944] [-0.038542911410331726:0.050541199743747711] [-0.063942104578018188:0.03747987374663353] [-0.065098829567432404:0.020619677379727364] [0.010670087300240993:0.083565212786197662] [-0.0057464162819087505:0.090668395161628723] [-0.030932826921343803:0.044285695999860764] [0.0067342156544327736:0.1032431423664093] [-0.15156547725200653:0.018867148086428642] [-0.057918950915336609:0.013631054200232029] [-0.018584208562970161:0.058415088802576065] [-0.082009576261043549:0.021372625604271889] [-0.11212595552206039:0.012498067691922188] [-0.02286522276699543:0.068126924335956573] [-0.049576062709093094:0.050766423344612122] [-0.060662850737571716:0.037786450237035751] [-0.066122926771640778:0.027532629668712616] [-0.059498030692338943:0.053870856761932373] [-0.044148899614810944:0.02209886722266674] [-0.018010647967457771:0.034920353442430496] [-0.054758705198764801:0.034522544592618942] [-0.047125857323408127:0.049477782100439072] [-0.033820323646068573:0.061435267329216003] [-0.037889540195465088:0.037463676184415817] [0.0013435164000838995:0.072283484041690826] [-0.029099389910697937:0.053476795554161072] [-0.018440358340740204:0.07155628502368927] [-0.029125215485692024:0.070624098181724548] [-0.07578626275062561:0.013232461176812649] [-0.072911597788333893:0.087779663503170013] [-0.015121830627322197:0.081769675016403198] [-0.062903217971324921:0.027802152559161186] [-0.06205672025680542:0.06936933845281601] [-0.038466069847345352:0.060440484434366226] [-0.090652003884315491:0.015819268301129341] [-0.041190013289451599:0.047523245215415955] [-0.057824060320854187:0.053516309708356857] [-0.0071990364231169224:0.10188750922679901] [-0.11830937117338181:0.023409387096762657] [-0.049370087683200836:0.073340386152267456] [-0.017629485577344894:0.06014740839600563] [-0.073505744338035583:0.023050567135214806] [-0.024799097329378128:0.0457007996737957] [0.0059069734998047352:0.091826453804969788] [0.013038191013038158:0.097379662096500397] [-0.050825756043195724:0.067641176283359528] [-0.021026436239480972:0.095505528151988983] [-0.062508687376976013:0.06007516011595726] [-0.018361728638410568:0.06125999242067337] [-0.072822041809558868:0.074652887880802155] [-0.048668984323740005:0.02736111544072628] [-0.22822622954845428:-0.026339948177337646] [-0.047839086502790451:0.05798899382352829] [0.015900742262601852:0.11323265731334686] [-0.026409702375531197:0.095744512975215912] [-0.038977392017841339:0.01971093937754631] [-0.090262547135353088:-0.0013682041317224503] [-0.012924617156386375:0.095781996846199036] [-0.048666927963495255:0.0060612820088863373] [-0.059392187744379044:0.042439870536327362] [-0.022658407688140869:0.081698149442672729] [-0.048847492784261703:0.056062355637550354] [-0.11704482138156891:-0.007826266810297966] [0.0026853419840335846:0.068384967744350433] [-0.024898875504732132:0.060864932835102081] [-0.041851222515106201:0.031005926430225372] [-0.089276492595672607:0.01175252441316843] [-0.11651730537414551:0.013356613926589489] [-0.076093964278697968:-0.013381677679717541] [-0.067462585866451263:0.021798862144351006] [-0.065477095544338226:0.042319644242525101] [-0.056374929845333099:0.048455804586410522] [-0.086334884166717529:0.028716839849948883] [-0.040351681411266327:0.10943058133125305] [0.0012734204065054655:0.068560488522052765] [-0.096168868243694305:-0.012888793833553791] [-0.089572153985500336:0.031540434807538986] [-0.11058581620454788:-0.015394076704978943] [-0.027346694841980934:0.068012811243534088] [-0.036578066647052765:0.091577045619487762] [0.0055963103659451008:0.10420295596122742] [-0.030827179551124573:0.021451132372021675] [-0.062369260936975479:0.03854307159781456] [-0.01785053126513958:0.078732497990131378] [-0.0797848179936409:0.010109898634254932] [-0.053180135786533356:0.070186786353588104] [-0.00016774024697951972:0.03710130974650383] [-0.076314985752105713:0.0065632280893623829] [-0.028333632275462151:0.066459029912948608] [-0.025880862027406693:0.072025611996650696] [-0.06358453631401062:-0.013289456255733967] [-0.037997666746377945:0.051702208817005157] [-0.10339073836803436:-0.017816130071878433] [-0.052190560847520828:0.033559434115886688] [-0.058279439806938171:0.03839237242937088] [-0.055606190115213394:0.014125721529126167] [-0.039637286216020584:0.06077909842133522] [-0.011310171335935593:0.058412298560142517] [-0.036826305091381073:0.042723376303911209] [0.017233090475201607:0.082020983099937439] [-0.033646039664745331:0.03319084644317627] [-0.025737415999174118:0.041198734194040298] [-0.024387290701270103:0.059761159121990204] [-0.016092857345938683:0.058054987341165543] [-0.04331449419260025:0.021879926323890686] [-0.026648262515664101:0.070937022566795349] [0.022704022005200386:0.11012905836105347] [0.026062920689582825:0.13059203326702118] [-0.060208939015865326:0.024950474500656128] [-0.090725697576999664:0.047368597239255905] [-0.10794832557439804:0.030111571773886681] [-0.029718659818172455:0.091168992221355438] [-0.066492527723312378:0.012594387866556644] [-0.019863473251461983:0.057279385626316071] [-0.034926064312458038:0.067445158958435059] [-0.043721958994865417:0.031237591058015823] [-0.087185569107532501:0.042225155979394913] [-0.027605179697275162:0.043353397399187088] [-0.055045511573553085:0.031298395246267319] [-0.05622396245598793:0.011308095417916775] [-0.020524641498923302:0.044777750968933105] [-0.05568968877196312:0.038553345948457718] [-0.029102224856615067:0.051440808922052383] [0.0045014065690338612:0.10527510195970535] [-0.034615766257047653:0.042165942490100861] [-0.062897905707359314:0.065322861075401306] [-0.12191913276910782:-0.0204454455524683] [-0.0026073367334902287:0.067169539630413055] [-0.1474749892950058:-0.03914250060915947] [-0.039793908596038818:0.057395622134208679] [-0.05138140544295311:0.026165833696722984] [-0.065406978130340576:0.029013600200414658] [-0.032288692891597748:0.068614669144153595] [-0.041343964636325836:0.066749937832355499] [-0.057897642254829407:0.067308574914932251] [-0.076378814876079559:0.019073938950896263] [0.0090133249759674072:0.08600202202796936] [-0.096469782292842865:0.046847771853208542] [-0.037430129945278168:0.041453689336776733] [-0.030543792992830276:0.037355925887823105] [-0.014235422015190125:0.063633464276790619] [-0.034418318420648575:0.072218917310237885] [-0.043129105120897293:0.051209740340709686] [-0.060528848320245743:0.0061959545128047466] [-0.077602110803127289:0.0035579130053520203] [-0.023275837302207947:0.047969568520784378] [-0.078574657440185547:0.035732012242078781] [-0.033361427485942841:0.041887562721967697] [-0.09200982004404068:-0.022327713668346405] [-0.0099765835329890251:0.047135304659605026] [-0.0097738103941082954:0.081230863928794861] [-0.076100662350654602:0.034353263676166534] [-0.032981794327497482:0.049188077449798584] [-0.013644209131598473:0.053943295031785965] [-0.048738043755292892:0.013675704598426819] [-0.019722150638699532:0.057788386940956116] [0.0099870488047599792:0.099414296448230743] [-0.06480744481086731:0.039660140872001648] [-0.038536176085472107:0.069656394422054291] [-0.076029740273952484:0.032361697405576706] [-0.046104807406663895:0.029480293393135071] [-0.015597771853208542:0.06165415421128273] [-0.011828325688838959:0.057157102972269058] [-0.070102296769618988:0.028077214956283569] [-0.079181171953678131:0.0098526207730174065] [-0.017454281449317932:0.0722469761967659] [-0.075681388378143311:0.032655123621225357] [-0.013848067261278629:0.11543941497802734] [-0.054869566112756729:0.032513432204723358] [-0.014640244655311108:0.10412544757127762] [-0.10209931433200836:0.025462968274950981] [-0.080279223620891571:0.070999622344970703] [0.0060323863290250301:0.094351284205913544] [-0.016594270244240761:0.046708241105079651] [-0.039289772510528564:0.031492087990045547] [-0.012830759398639202:0.086124375462532043] [-0.032651770859956741:0.088619858026504517] [-0.022432867437601089:0.083558648824691772] [-0.053469389677047729:0.020541990175843239] [-0.077164866030216217:0.032546106725931168] [-0.035524379462003708:0.030405681580305099] [-0.030749987810850143:0.010443779639899731] [-0.020073970779776573:0.064558953046798706] [-0.016313444823026657:0.083776287734508514] [-0.016519436612725258:0.060972925275564194] [-0.057971570640802383:0.032668128609657288] [-0.1239115297794342:-0.0088635031133890152] [-0.073977373540401459:0.059905309230089188] [-0.051889121532440186:0.015353037975728512] [0.0048900749534368515:0.093070857226848602] [-0.046679012477397919:0.017981436103582382] [-0.071917980909347534:0.094791442155838013] [-0.084439963102340698:0.069213531911373138] [-0.02649085596203804:0.032855533063411713] [-0.020604468882083893:0.032213464379310608] [-0.07319147139787674:0.010113130323588848] [-0.14686185121536255:-0.038750201463699341] [-0.081351079046726227:0.0068368604406714439] [-0.023997370153665543:0.086017079651355743] [-0.099034801125526428:-0.012232468463480473] [-0.03028964065015316:0.051409129053354263] [-0.13486985862255096:-0.0052840937860310078] [-0.057958383113145828:0.040104001760482788] [-0.055083829909563065:0.038943324238061905] [-0.019991189241409302:0.076554112136363983] [-0.076403185725212097:0.02214958518743515] [-0.073061659932136536:0.019982827827334404] [-0.13911731541156769:-0.011627042666077614] [-0.0686049684882164:0.014642140828073025] [-0.062561392784118652:0.0077218767255544662] [-0.056455332785844803:0.028903862461447716] [-0.0810747891664505:0.030320374295115471] [-0.071316555142402649:0.0031321125570684671] [-0.024244826287031174:0.098088338971138] [-0.062630519270896912:0.088805168867111206] [-0.036633826792240143:0.030749917030334473] [-0.014591226354241371:0.096054397523403168] [-0.085858441889286041:0.048328988254070282] [-0.11594299226999283:-0.017937220633029938] [-0.060447942465543747:0.03413916751742363] [0.026177702471613884:0.10651730746030807] [-0.00062959437491372228:0.097596153616905212] [-0.037751525640487671:0.052743218839168549] [-0.054939083755016327:0.011351631954312325] [-0.036116499453783035:0.027152718976140022] [-0.081821076571941376:0.019116120412945747] [-0.072063393890857697:0.053581058979034424] [-0.025574004277586937:0.089911855757236481] [-0.062765732407569885:0.027016621083021164] [-0.049724027514457703:0.073944360017776489] [-0.060028441250324249:0.053232800215482712] [-0.034195981919765472:0.042583819478750229] [-0.082711420953273773:0.104934923350811] [-0.096483387053012848:0.01932738721370697] [-0.091256946325302124:-0.0027326727285981178] [-0.036595799028873444:0.042169038206338882] [-0.01705029234290123:0.065014958381652832] [-0.064439453184604645:0.051711883395910263] [-0.052560023963451385:0.03354186937212944] [-0.041469089686870575:0.045279394835233688] [-0.076423898339271545:0.048845361918210983] [-0.064068861305713654:0.036667119711637497] [-0.047618705779314041:0.032503053545951843] [-0.042761292308568954:0.038187596946954727] [-0.0353238545358181:0.024812661111354828] [-0.054327137768268585:0.059376463294029236] [-0.017149936407804489:0.046431355178356171] [-0.043362513184547424:0.048842042684555054] [-0.093440666794776917:0.022335784509778023] [-0.005951079074293375:0.059315502643585205] [0.0072042155079543591:0.098848931491374969] [-0.11307201534509659:-0.0065251793712377548] [-0.0061529236845672131:0.092648252844810486] [-0.036442175507545471:0.036816325038671494] [-0.027825912460684776:0.088793225586414337] [-0.095084674656391144:-0.01278382632881403] [-0.067896276712417603:0.0086790444329380989] [-0.054932065308094025:0.020173382014036179] [-0.070671312510967255:0.021336035802960396] [0.031439002603292465:0.10422375798225403] [-0.041261740028858185:0.016917185857892036] [-0.059706561267375946:0.040349520742893219] [-0.080071844160556793:0.015759274363517761] [-0.10836251825094223:0.040884386748075485] [-0.051609750837087631:0.042878538370132446] [-0.094228558242321014:0.013844205066561699] [-0.048406992107629776:0.027733650058507919] [-0.028218571096658707:0.057031840085983276] [-0.050138723105192184:0.043288260698318481] [-0.026063535362482071:0.018672255799174309] [0.00059305434115231037:0.072545371949672699] [-0.079470090568065643:0.080531150102615356] [-0.088714972138404846:0.0085967043414711952] [-0.0030709225684404373:0.07772807776927948] [-0.069722548127174377:0.0048647578805685043] [-0.11080397665500641:0.019766040146350861] [-0.016779292374849319:0.06410498172044754] [0.0045895790681242943:0.093718133866786957] [-0.070536963641643524:0.01789514347910881] [-0.0037344568409025669:0.11451633274555206] [-0.082713887095451355:0.010051538236439228] [-0.0068510118871927261:0.093809187412261963] [-0.035073883831501007:0.06122700497508049] [-0.012951569631695747:0.089399516582489014] [-0.044707257300615311:0.080421209335327148] [-0.094474151730537415:0.027427859604358673] [-0.033108960837125778:0.013599703088402748] [-0.063355669379234314:0.057287946343421936] [-0.012303056195378304:0.077056623995304108] [-0.10359355807304382:-0.016820603981614113] [0.01501048170030117:0.09710308164358139] [-0.02569989301264286:0.06182074174284935] [0.024989970028400421:0.10674165189266205] [-0.071201950311660767:0.0048821838572621346] [-0.014546971768140793:0.072913751006126404] [-0.069876089692115784:0.009089185856282711] [-0.054754648357629776:0.059539739042520523] [-0.013875994831323624:0.083114266395568848] [0.0018865488236770034:0.077574357390403748] [-0.090197987854480743:0.019797913730144501] [-0.089126177132129669:0.018793586641550064] [-0.046769864857196808:0.039302993565797806] [-0.065965652465820312:0.044587630778551102] [-0.010062252171337605:0.084796302020549774] [-0.099998682737350464:0.020098870620131493] [-0.098016716539859772:0.017019966617226601] [-0.066003888845443726:0.046314138919115067] [-0.0058403736911714077:0.069264687597751617] [-0.067969933152198792:0.033870592713356018] [-0.045080404728651047:0.075666137039661407] [-0.035050205886363983:0.045456994324922562] [-0.0027512798551470041:0.14853598177433014] [-0.03880774974822998:0.042779546231031418] [-0.017169523984193802:0.03644002228975296] [-0.052874773740768433:0.053165778517723083] [-0.10911452025175095:0.023069951683282852] [-0.086594253778457642:0.040462635457515717] [-0.098056167364120483:-0.00025297515094280243] [-0.10037333518266678:0.039475318044424057] [-0.04558989405632019:0.058714982122182846] [0.047017548233270645:0.14723581075668335] [-0.058671537786722183:0.040377251803874969] [-0.069076351821422577:0.021200712770223618] [-0.07776593416929245:0.03199005126953125] [-0.084269888699054718:0.059455718845129013] [-0.076546020805835724:-0.00035690137883648276] [-0.083868436515331268:0.050585847347974777] [-0.086405441164970398:0.051654301583766937] [-0.02422812208533287:0.034587990492582321] [-0.037975750863552094:0.060677416622638702] [-0.01405640784651041:0.072455614805221558] [0.02185698039829731:0.050245445221662521] [-0.064125597476959229:0.017692938446998596] [-0.025738786906003952:0.060585375875234604] [-0.093990206718444824:0.005722870584577322] [-0.048298660665750504:0.067571178078651428] [-0.023111412301659584:0.1351102888584137] [-0.10457241535186768:0.013297533616423607] [-0.044170085340738297:0.037846285849809647] [-0.12425980716943741:0.021977974101901054] [-0.074836574494838715:0.055881790816783905] [-0.068224094808101654:-6.6097760281991214e-05] [-0.071243621408939362:0.002218952402472496] [-0.058009106665849686:0.063862189650535583] [-0.061675257980823517:0.026839666068553925] [-0.032426126301288605:0.043037623167037964] [-0.074628092348575592:0.011742932721972466] [-0.027585325762629509:0.10200836509466171] [-0.06076531857252121:0.050825167447328568] [-0.026163812726736069:0.04445020854473114] [-0.04374539852142334:0.072757773101329803] [-0.057003118097782135:0.057134956121444702] [-0.010185752995312214:0.11008153855800629] [-0.11684802919626236:0.010003471747040749] [-0.056826043874025345:0.020412128418684006] [-0.03113987110555172:0.067107886075973511] [-0.052597023546695709:0.064417809247970581] [-0.022449124604463577:0.031375769525766373] [-0.071202874183654785:0.017237409949302673] [-0.078771814703941345:0.032361742109060287] [-0.029354233294725418:0.078947380185127258] [-0.05971401184797287:0.038879614323377609] [-0.03264879435300827:0.05731622502207756] [-0.052076853811740875:0.080586694180965424] [-0.0097445109859108925:0.11185447871685028] [-0.0841236412525177:0.022359689697623253] [-0.080781541764736176:0.02177383191883564] [-0.021162647753953934:0.0913739874958992] [-0.054837029427289963:0.036606162786483765] [-0.038671433925628662:0.058108221739530563] [-0.042971871793270111:0.034321583807468414] [-0.040892008692026138:0.019475268200039864] [-0.037238333374261856:0.021725889295339584] [-0.11304947733879089:0.040709182620048523] [-0.048215869814157486:0.047797758132219315] [-0.034813355654478073:0.050735466182231903] [-0.034056283533573151:0.050669513642787933] [-0.047378439456224442:0.055412199348211288] [-0.039937116205692291:0.014988217502832413] [-0.026125293225049973:0.059029307216405869] [-0.044370222836732864:0.045840483158826828] [-0.036433666944503784:0.042693734169006348] [-0.11275846511125565:-0.013458309695124626] [-0.17216148972511292:-0.020947583019733429] [-0.023647375404834747:0.066767513751983643] [-0.061343550682067871:0.11855694651603699] [-0.042631443589925766:0.06631585955619812] [-0.075081273913383484:0.033701758831739426] [-0.082986451685428619:0.028089979663491249] [-0.100213423371315:-0.0030036054085940123] [-0.012972625903785229:0.042086970061063766] [-0.044867958873510361:0.024574806913733482] [-0.061873670667409897:0.054101932793855667] [-0.029006397351622581:0.065589055418968201] [-0.014525597915053368:0.092652857303619385] [-0.057061180472373962:0.0096815582364797592] [-0.017357513308525085:0.055063247680664062] [-0.042902853339910507:0.041092008352279663] [-0.047525279223918915:0.066666349768638611] [0.012304176576435566:0.085088424384593964] [-0.013817825354635715:0.074192576110363007] [-0.022807719185948372:0.069870345294475555] [-0.10743501037359238:-0.0040247482247650623] [-0.069420292973518372:0.029752911999821663] [-0.053648073226213455:0.010480111464858055] [-0.031446952372789383:0.060218103229999542] [-0.014281854964792728:0.127912238240242] [-0.0043426207266747952:0.10105504095554352] [-0.019126936793327332:0.052450243383646011] [-0.040663443505764008:0.064201854169368744] [-0.084524862468242645:0.00041445749229751527] [-0.056586712598800659:0.064000815153121948] [-0.046447273343801498:0.067367285490036011] [-0.027544820681214333:0.056495871394872665] [-0.082646280527114868:0.013636477291584015] [-0.060650534927845001:0.0037723036948591471] [-0.098235249519348145:0.015335360541939735] [0.00036524602910503745:0.074876725673675537] [-0.044564459472894669:0.073831133544445038] [-0.033265247941017151:0.085189603269100189] [-0.039267212152481079:0.015570052899420261] [-0.083588063716888428:0.015137791633605957] [-0.10867942124605179:0.028464231640100479] [-0.016777444630861282:0.053096603602170944] [-0.036473572254180908:0.044612042605876923] [-6.4591475012005842e-33:-4.5374500711602778e-33] [0.0017679204465821385:0.071256048977375031] [-0.083731487393379211:-0.029150357469916344] [-0.024562589824199677:0.074940651655197144] [-0.042642891407012939:0.069664552807807922] [-0.044134017080068588:0.079971626400947571] [-0.025719888508319855:0.052629802376031876] [-0.022523494437336922:0.073553062975406647] [-0.066673800349235535:0.0068645053543150425] [-0.076134361326694489:0.0071263904683291912] [-0.036775745451450348:0.032345980405807495] [-0.048387203365564346:0.0062582269310951233] [-0.034809991717338562:0.043464735150337219] [0.0021789222955703735:0.04368157684803009] [-0.025327444076538086:0.048274554312229156] [-0.02796136774122715:0.067476235330104828] [-0.0114781204611063:0.11441575735807419] [-0.023759884759783745:0.054084308445453644] [-0.01095876656472683:0.042682960629463196] [-0.019066087901592255:0.043138053268194199] [-0.045488499104976654:0.067416682839393616] [-0.049406178295612335:0.043374359607696533] [-0.019437512382864952:0.053114522248506546] [-0.042313627898693085:0.044442929327487946] [-0.078743845224380493:0.031891129910945892] [-0.043778810650110245:0.042070075869560242] [-0.034645486623048782:0.057111948728561401] [-0.073749400675296783:0.0046986481174826622] [-0.040997020900249481:0.08194703608751297] [-0.088966138660907745:0.024214804172515869] [-0.04393986240029335:0.018460053950548172] [-0.011515616439282894:0.060525409877300262] [-0.047813214361667633:0.041787676513195038] [-0.051420200616121292:0.021990641951560974] [-0.11510007083415985:0.01852024719119072] [-0.038140598684549332:0.031584896147251129] [-0.056889206171035767:0.090550981462001801] [-0.099018305540084839:-0.0048516024835407734] [-0.028418861329555511:0.073043510317802429] [-0.030572036281228065:0.052187692373991013] [-0.034624800086021423:0.054988991469144821] [-0.081886574625968933:0.017946230247616768] [-0.042918961495161057:0.041246287524700165] [-0.019918277859687805:0.071546107530593872] [-0.058513659983873367:0.051016483455896378] [-0.063524112105369568:0.036159798502922058] [-0.070028603076934814:0.022643610835075378] [-0.019392702728509903:0.06077122688293457] [-0.021986637264490128:0.03735613077878952] [-0.015851128846406937:0.079069145023822784] [-0.048296712338924408:0.040705315768718719] [-0.068009346723556519:0.020028423517942429] [-0.03878340870141983:0.029573928564786911] [-0.098725683987140656:-0.026252483949065208] [0.0014441555831581354:0.10027585178613663] [-0.037891004234552383:0.060272697359323502] [-0.01774134673178196:0.067838490009307861] [-0.053131338208913803:0.021177938207983971] [-0.078860700130462646:0.020062964409589767] [-0.099398478865623474:0.088027656078338623] [-0.017131173983216286:0.071459926664829254] [-0.064971804618835449:0.080584481358528137] [-0.052648298442363739:0.054088704288005829] [-0.0031411536037921906:0.080965027213096619] [-0.057882510125637054:0.074540860950946808] [-0.055215992033481598:0.078843511641025543] [-0.0090488381683826447:0.058491364121437073] [-0.030568037182092667:0.11148460954427719] [-0.038009297102689743:0.092132739722728729] [-0.07143557071685791:0.069345705211162567] [-0.079094491899013519:0.055044613778591156] [-0.084693185985088348:0.01377219520509243] [0.044147968292236328:0.13404262065887451] [-0.065087907016277313:0.047448806464672089] [-0.073464080691337585:0.036875016987323761] [-0.11276093870401382:0.0073930877260863781] [-0.078035235404968262:0.014374386519193649] [-0.059057783335447311:0.058168258517980576] [-0.044389836490154266:0.050047095865011215] [-0.011063829064369202:0.10487488657236099] [-0.03205399215221405:0.057216398417949677] [-0.072468273341655731:0.021937249228358269] [-0.042431008070707321:0.048461098223924637] [-0.058174837380647659:0.031820185482501984] [-0.039846494793891907:0.02685106173157692] [-0.010903293266892433:0.080992951989173889] [-0.12764745950698853:0.057365205138921738] [-0.052449055016040802:0.021068491041660309] [-0.037113025784492493:0.053204853087663651] [-0.013120109215378761:0.039969727396965027] [-0.044884674251079559:0.054371844977140427] [-0.076535917818546295:0.002138989046216011] [0.018168823793530464:0.16194099187850952] [-0.053952209651470184:0.01860710047185421] [-0.078173272311687469:0.045467343181371689] [0.0019179373048245907:0.12449923157691956] [-0.069218374788761139:0.038478944450616837] [-0.032394729554653168:0.055014856159687042] [-0.056241612881422043:0.065220922231674194] [-0.011563766747713089:0.056108877062797546] [-0.052855316549539566:0.044402118772268295] [-0.057296097278594971:0.01742556132376194] [-0.029399119317531586:0.072467014193534851] [-0.047827914357185364:0.034727897495031357] [-0.041144821792840958:0.056192871183156967] [-0.0082136495038866997:0.080837026238441467] [-0.027352336794137955:0.050077132880687714] [-0.056509163230657578:0.03371690958738327] [-0.016032679006457329:0.070788830518722534] [-0.073509253561496735:-0.00091763387899845839] [-0.022460486739873886:0.042973827570676804] [-0.049291409552097321:0.02253727987408638] [-0.016073198989033699:0.087717950344085693] [-0.056692864745855331:0.039006903767585754] [-0.066214174032211304:0.066052153706550598] [-0.047027312219142914:0.019919231534004211] [-0.046613041311502457:0.016148224472999573] [-0.0055497763678431511:0.062045898288488388] [-0.066105574369430542:0.051513247191905975] [-0.059119898825883865:0.019826518371701241] [-0.069191582500934601:0.057624064385890961] [-0.044769894331693649:0.06461343914270401] [-0.035449489951133728:0.064537882804870605] [-0.081469669938087463:0.023212665691971779] [-0.078677713871002197:0.023574447259306908] [-0.028659563511610031:0.039021220058202744] [-0.069344937801361084:0.010275873355567455] [-0.043865341693162918:0.059649467468261719] [-0.096869125962257385:0.042421501129865646] [-0.055465094745159149:0.036506958305835724] [-0.079988531768321991:0.02103927917778492] [-0.047078005969524384:0.013577000238001347] [-0.063258714973926544:0.038650080561637878] [1.9249371518981206e-07:2.6855110490942025e-07] [-0.028845019638538361:0.07953324168920517] [-0.022482167929410934:0.085243426263332367] [-0.029683934524655342:0.03802039846777916] [-0.030865110456943512:0.078988909721374512] [-0.0091031407937407494:0.065330773591995239] [-0.073976300656795502:0.026591455563902855] [-0.039373014122247696:0.03043089248239994] [-0.028232352808117867:0.041900675743818283] [-0.048430703580379486:0.062892429530620575] [-0.046086020767688751:0.04863131046295166] [-0.042467467486858368:0.10423339903354645] [-0.058928422629833221:0.026145501062273979] [-0.036343388259410858:0.047985691577196121] [-0.062115069478750229:0.031832274049520493] [-0.05180295929312706:0.050501439720392227] [-0.15661254525184631:-0.011523437686264515] [-0.094109050929546356:-0.0041004940867424011] [-0.11007390171289444:0.013835245743393898] [-0.09100043773651123:-0.0084566026926040649] [-0.034766212105751038:0.035580072551965714] [-0.034157667309045792:0.087618671357631683] [-0.045552670955657959:0.077954694628715515] [-0.018001768738031387:0.069742307066917419] [-0.058836247771978378:0.024876814335584641] [-0.011881770566105843:0.074640966951847076] [-0.10313595831394196:-0.0082404455170035362] [-0.055969156324863434:0.0056386883370578289] [-0.059731591492891312:0.039944052696228027] [0.016608571633696556:0.12566554546356201] [0.01481835450977087:0.09379345178604126] [-0.039152767509222031:0.085745170712471008] [-0.035807877779006958:0.08718658983707428] [-0.015895066782832146:0.071586281061172485] [-0.0029861158691346645:0.095286339521408081] [-0.043851602822542191:0.030496591702103615] [-0.057056240737438202:0.050409704446792603] [-0.029030939564108849:0.042679186910390854] [-0.0037417395506054163:0.083978816866874695] [-0.047180932015180588:0.029903503134846687] [-0.0074395523406565189:0.073606938123703003] [-0.040944457054138184:0.049136359244585037] [-0.096106663346290588:0.029691914096474648] [-0.023746013641357422:0.037087425589561462] [-0.10296022146940231:0.019165510311722755] [-0.0078233573585748672:0.061946813017129898] [-0.058085177093744278:0.035227809101343155] [-0.0653548464179039:0.026596430689096451] [-0.042293574661016464:0.10336509346961975] [-0.056309636682271957:0.022189594805240631] [-0.054537668824195862:0.030218446627259254] [-0.077884770929813385:0.019013982266187668] [-0.039905477315187454:0.056073829531669617] [-0.055505882948637009:0.052542980760335922] [-0.05458362028002739:0.046253088861703873] [-0.031403958797454834:0.032885916531085968] [-0.058156155049800873:0.033990088850259781] [-0.11475709825754166:-0.00060992530779913068] [-0.019178258255124092:0.077839620411396027] [-0.0098925558850169182:0.067725248634815216] [-0.053383462131023407:0.076619148254394531] [-0.062655448913574219:0.0097502507269382477] [-0.06912357360124588:0.025432338938117027] [-0.028196515515446663:0.047195114195346832] [-0.051586974412202835:0.056539788842201233] [0.00068287545582279563:0.10430194437503815] [-0.071150436997413635:0.054437648504972458] [-0.046883709728717804:0.022958995774388313] [1.5699257405221962e-34:2.6749850208561892e-34] [-0.022212054580450058:0.054059699177742004] [-0.011066403239965439:0.072109811007976532] [-0.044976718723773956:0.01705324649810791] [-0.086010292172431946:0.046348787844181061] [0.0040322006680071354:0.064286045730113983] [-0.079743325710296631:-0.0025661294348537922] [-0.059933904558420181:0.056923720985651016] [-0.065796583890914917:0.0036438682582229376] [-0.0277367252856493:0.04394073411822319] [-0.0064440821297466755:0.080547109246253967] [-0.072644047439098358:-0.0065994374454021454] none none none none none none none none none none none [0:1] none none none none [0:1] none none none none [0:1] none none none none none none none none none none none none none none [0:1] none none none none none none none none none none none [0:1] [0:1] [0:1] [0:1] none none none none [0:1] [0:1] [0:1] [0:1] [0:1] [0:1] [0:1] [-1.8135615507327441:0.69955430996241208] [-1.567716548179118:2.2217482956225933] [-2.0430156738209968:0.48947250518628038] [-2.0986055078836534:0.83944220315366169]
tree_sizes=1620 1646 1649 1828 1653 1836 1562 1735 1826 1821 1565 1649 1650 1735 1657 1745 1837 1747 1838 1760 1928 1759 1744 1844 1747 1742 1751 1935 1841 1753 1848 1847 1753 1768 1749 1754 1755 1841 1764 1663 1759 1946 1849 1754 1760 1860 1766 2035 1764 1857 1850 1753 1848 1664 1949 1760 1761 1595 1760 1935 1945 1867 1758 1947 1862 1947 1841 1944 1852 1962 1853 1771 1958 1859 2039 1957 1958 1686 1867 1853 1777 1859 1769 1867 1860 1683 1868 1774 1775 2041 1685 1685 1957 1868 1770 1776 1782 1863 1778 1871 1962 1780 1872 1871 1865 1780 1872 1869 1784 2041 1779 1964 1880 1777 1779 1869 1796 1868 1879 1879 1694 1776 1866 1961 1786 1876 1876 1795 1880 1871 1876 1879 1779 1867 1969 1887 1779 1966 1876 1773 1791 1797 1875 1972 1787 1878 1786 1968 1877 1886 1778 1792 1976 1877 1888 1963 1876 1788 1965 1785 1884 1787 1794 1968 1975 1885 1882 1875 1791 1709 1788 1877 1789 1793 1791 1878 1789 1874 1789 1798 1792 1969 1797 1800 1974 1882 1899 1797 1883 1699 1788 1898 1794 1880 1694 1794 1882 1879 1882 1886 1880 1801 1885 1900 1982 1889 1983 1891 1802 1797 1806 1881 1889 1789 1797 1888 1973 2072 1705 1898 1896 1899 1886 1884 1705 1884 1709 1710 1805 1704 1799 1896 1979 1808 1708 1800 1714 1714 1899 1995 1905 1994 1802 1902 1798 1713 1799 1896 1793 1794 1801 1801 1797 1993 1897 1799 1896 1706 1803 1892 1891 1900 1803 1814 1890 1801 1900 1802 1890 1818 1987 1888 1815 1811 1893 1888 1810 1980 1983 1885 1817 1707 1902 1716 1901 1896 1897 1812 1808 1905 1901 1902 1801 1891 1900 1901 1896 1902 1990 1812 1899 1900 1807 1990 1898 1898 1900 1805 2088 1891 1710 1905 1895 1895 1988 1901 1802 1908 1903 1893 1900 1718 1906 1809 1800 1798 1904 1995 1900 1981 1802 1798 1812 1895 1716 1805 1810 1813 1813 1812 1809 1802 1989 1707 2070 1807 1913 1813 1811 1812 2008 1993 1813 1815 1897 1991 1815 1806 1816 1719 1819 2087 1812 1900 1719 1898 1718 1808 1993 1998 1718 1904 1721 1902 1904 1802 1902 1725 1907 1902 1900 1989 1808 1901 1903 1806 1814 1905 1818 1995 1910 1985 1895 1810 1911 1902 1815 1989 1910 1813 1897 1722 1893 1817 1898 1908 1894 1995 1711 1814 1720 1909 1815 1899 1717 1910 1901 1915 1901 2086 1992 1901 1899 1814 1904 1903 1814 2082 1714 1812 1898 1813 1907 1898 1915 1813 1812 1897 1829 2089 1814 1815 2001 1812 1902 1895 1913 1901 1815 1807 1991 1818 1824 1993 1913 1819 1818 1817 1813 1910 2006 1907 1820 1905 1815 1903 1806 2004 1818 1827 1818 1898 1910 1914 1812 1824 1810 1909 1918 1823 2002 1914 2004 1821 1907 1722 1822 1914 1917 1992 2006 1909 1925 1906 1920 1809 1817 1819 1811 1899 1915 1816 1910 1906 1900 1905 1914 1811 1815 1714 2008 1902 1910 1910 1915 1821 1906 1817 1998 1819 1810 1911 1812 1923 1897 1909 1910 1729 1906 1908 1817 1902 1820 2000 1909 1903 1910 1908 1910 1912 2093 1822 1924 1826 1922 1922 1913 1904 1818 1909 1916 1826 2003 1824 1817 1915 1825 1825 1922 1917 1909 1735 1819 1922 1827 1914 1728 1915 2021 2003 1925 1915 1724 2016 1824 1914 1905 1817 1828 1824 1911 1827 1831 1926 1916 1817 1735 1921 1831 1909 1907 2104 1921 1817 2010 2101 1819 1910 2012 1831 1822 1921 1919 1918 1913 1834 1917 1827 1922 1921 1828 2111 2025 1827 1732 1919 1825 2007 1730 1925 1924 1924 1905 1914 1914 2098 1833 1921 1829 1921 2094 2014 1921 2005 1822 1829 1923 2014 2004 1832 1831 1920 1925 1922 1725 1835 1829 1832 1916 1824 2020 1923 1821 1739 1829 2030 1918 1830 1817 1907 1817 1827 1909 2111 1822 1837 1746 1634 1922 1923 1923 1915 1723 1917 1928 1822 1840 1831 1921 2010 1928 2004 2017 1828 2103 1919 2021 1913 1922 1926 1823 1922 1923 2020 1927 1921 1921 1827 1824 1825 1923 1816 1832 1831 1919 1927 1917 1923 1920 1908 1923 1925 1925 2017 1830 1826 2012 1913 1913 1931 1916 1935 1830 2007 1737 1823 1826 1915 1910 2016 2000 1830 1827 1825 2124 2003 1933 1736 1839 2118 1931 1736 1914 1828 2011 2003 1831 1833 2016 1751 1923 1919 2017 1837 2111 2015 2015 2026 1927 2114 1930 1826 1828 1924 2029 2029 2023 1821 1928 2021 2019 1833 1830 1827 1832 1922 1735 1925 1924 1923 1919 1835 2006 1926 1832 1928 2114 1829 2022 2013 2015 1917 1732 1999 2019 1926 1844 2015 1834 1928 1913 1932 1831 1830 1825 2010 2015 1828 2006 2009 2018 1823 2019 2121 1930 1925 1925 1820 2008 1932 1922 2018 2019 1836 2014 1929 1916 1929 1920 1822 1925 2017 1923 1933 2006 1912 1927 2023 1930 2016 1927 1830 1925 2021 1908 1737 1832 1638 1730 2006 1735 2024 1821 1827 1728 2119 1734 1933 1830 1825 1823 1826 2113 1924 1936 1913 1736 1825 1819 1818 1913 1921 1914 1923 1742 1914 1832 1909 1838 2010 1928 2022 1927 1917 1914 1923 1924 2027 1918 2022 1917 1834 1827 1927 1826 1921 2016 1918 2017 1936 1928 1922 1831 1924 2101 1934 2117 1824 1922 2019 1928 1838 1921 2005 2110 1922 2023 1736 2012 2015 1919 2017 2020 2019 1830 2024 1742 1924 1925 1740 2102 1928 1827 1924 2109 1933 2112 1928 1928 1911 1915 1830 2016 2022 1929 2112 1924 1927 2098 1907 1911 1731 2113 2005 1908 1907 2093 1927 2001 2014 1914 2018 1924 1836 1931 1816 1834 1906 1913 1921 1823 1915 1923 1812 1821 1824 1916 1922 1915 1921 1828 1920 1734 1829 1733 1911 1647 1929 1734 2006 1931 1930 2004 2026 2028 2002 1831 1738 1929 1826

Tree=0
num_leaves=18
num_cat=0
split_feature=832 3 236 546 826 562 831 779 409 557 66 742 57 824 562 824 7
split_gain=46.2406 6.39739 5.65791 4.46989 4.40784 2.77194 2.36283 3.10725 2.21498 2.16533 2.00064 1.50891 1.30792 1.28538 0.71328 0.773436 0.161982
threshold=1.0000000180025095e-35 -0.029395958408713337 0.071405980736017241 -0.029265268705785271 1.0000000180025095e-35 0.0094503290019929426 1.0000000180025095e-35 1.0000000180025095e-35 0.068541001528501524 -0.054746598005294793 0.034231761470437057 0.0032932559261098508 0.020933809690177444 1.0000000180025095e-35 0.023634106852114204 1.0000000180025095e-35 -0.017357195727527138
decision_type=2 2 2 2 2 2 2 2 2 2 2 2 2 2 2 2 2
left_child=1 2 -1 6 5 11 10 12 -4 -7 -2 -3 -8 -11 -14 16 -16
right_child=3 4 8 -5 -6 9 7 -9 -10 13 -12 -13 14 -15 15 -17 -18
leaf_value=11.417755256850052 11.448126809218966 11.454845613413582 11.42962591436949 11.448151424113288 11.431042525301157 11.433056773818471 11.469837281165052 11.453449501142039 11.44314390757984 11.439617622199824 11.459411148893517 11.443973725513336 11.457652701001395 11.447697888548191 11.463140088500442 11.468624994296361 11.459627045196395
leaf_weight=20 26 27 20 37 27 22 25 34 24 34 31 20 24 37 27 20 21
leaf_count=20 26 27 20 37 27 22 25 34 24 34 31 20 24 37 27 20 21
internal_value=11.4487 11.4391 11.431 11.4578 11.4421 11.4443 11.4595 11.4614 11.437 11.4413 11.4543 11.4502 11.4638 11.4438 11.4621 11.4637 11.4616
internal_weight=476 231 64 245 167 140 208 151 44 93 57 47 117 71 92 68 48
internal_count=476 231 64 245 167 140 208 151 44 93 57 47 117 71 92 68 48
is_linear=0
shrinkage=1


Tree=1
num_leaves=17
num_cat=0
split_feature=832 235 546 386 93 83 824 511 310 831 779 66 57 562 824 48
split_gain=43.5078 6.02118 4.20572 3.83506 2.92717 2.68559 3.29479 3.8432 3.61648 2.22318 2.92361 1.88241 1.23633 0.701118 0.686861 0.48773
threshold=1.0000000180025095e-35 0.047914922237396247 -0.029265268705785271 -0.033044999465346329 0.020957504399120811 -0.0066212029196321956 1.0000000180025095e-35 -0.012186685577034949 0.013294986914843323 1.0000000180025095e-35 1.0000000180025095e-35 0.034231761470437057 0.020257050171494487 0.023634106852114204 1.0000000180025095e-35 -0.021729982458055016
decision_type=2 2 2 2 2 2 2 2 2 2 2 2 2 2 2 2
left_child=1 3 9 -1 5 6 7 -5 -8 11 12 -2 -11 -14 15 -15
right_child=2 -3 -4 4 -6 -7 8 -9 -10 10 -12 -13 13 14 -16 -17
leaf_value=0.00078363610431551932 -0.00053638496292898285 -0.023565131585346535 -0.0005125085599689015 -0.0247802510231056 -0.018708260266317261 0.00039144257399519635 -0.014602808704599738 -0.0090244586966735738 0.0015642260997132823 0.021028919829563661 0.0046266260317198056 0.010409424509552697 0.0087037299433723077 0.010430680277847474 0.019346854425966738 0.016439655303955077
leaf_weight=39 26 24 37 22 27 28 20 38 33 22 34 31 24 31 20 20
leaf_count=39 26 24 37 22 27 28 20 38 33 22 34 31 24 31 20 20
internal_value=1.33205e-11 -0.00934067 0.00880692 -0.00769146 -0.00965889 -0.00792604 -0.00998701 -0.0148016 -0.00453654 0.0104647 0.0123703 0.0054166 0.0146206 0.0131365 0.0146349 0.0127871
internal_weight=476 231 245 207 168 141 113 60 53 208 151 57 117 95 71 51
internal_count=476 231 245 207 168 141 113 60 53 208 151 57 117 95 71 51
is_linear=0
shrinkage=0.03


Tree=2
num_leaves=17
num_cat=0
split_feature=832 3 236 826 546 562 831 779 409 596 66 742 57 824 576 829
split_gain=40.9365 5.75791 5.25965 4.01768 3.95716 2.52551 2.09179 2.75082 2.02294 1.97668 1.77116 1.39441 1.16326 0.885085 0.65991 0.478864
threshold=1.0000000180025095e-35 -0.029395958408713337 0.071405980736017241 1.0000000180025095e-35 -0.029265268705785271 0.0094503290019929426 1.0000000180025095e-35 1.0000000180025095e-35 0.068541001528501524 -0.024957023561000821 0.034231761470437057 0.0032932559261098508 0.020257050171494487 1.0000000180025095e-35 -0.023022456094622609 1.0000000180025095e-35
decision_type=2 2 2 2 2 2 2 2 2 2 2 2 2 2 2 2
left_child=1 2 -1 5 6 11 10 12 -4 -7 -2 -3 -8 -11 -14 -16
right_child=4 3 8 -5 -6 9 7 -9 -10 13 -12 -13 14 -15 15 -17
leaf_value=-0.029467603705823419 -0.00052029332074408343 0.0060304066373242276 -0.017959708501584827 -0.016724127581756974 -0.00049713349026844929 -0.01344670306056224 0.020398052991791201 0.0044878271375508871 -0.0050410114892292766 -0.0078809663394048546 0.010097141891207185 -0.0044208674705587328 0.015804737194588307 -0.00079382929897734095 0.013499306870092239 0.007999001941804227
leaf_weight=20 26 27 20 27 37 29 22 34 24 29 31 20 38 35 28 29
leaf_count=20 26 27 20 27 37 29 22 34 24 29 31 20 38 35 28 29
internal_value=2.27936e-11 -0.00906045 -0.0167114 -0.00612835 0.00854271 -0.00408488 0.0101508 0.0119992 -0.0109131 -0.00694932 0.0052541 0.00158306 0.014182 -0.00400519 0.0127424 0.0107009
internal_weight=476 231 64 167 245 140 208 151 44 93 57 47 117 64 95 57
internal_count=476 231 64 167 245 140 208 151 44 93 57 47 117 64 95 57
is_linear=0
shrinkage=0.03


Tree=3
num_leaves=19
num_cat=0
split_feature=832 235 546 386 470 829 261 530 779 831 66 824 447 57 594 562 824 48
split_gain=38.5171 5.51661 3.7233 3.52211 2.6408 2.70067 2.81121 2.45424 1.97302 2.63299 1.84629 1.69309 2.8118 1.09451 0.652983 0.638711 0.639382 0.461341
threshold=1.0000000180025095e-35 0.047914922237396247 -0.029265268705785271 -0.033044999465346329 0.011713312938809397 1.0000000180025095e-35 -0.036916892975568764 0.03439574874937535 1.0000000180025095e-35 1.0000000180025095e-35 0.034231761470437057 1.0000000180025095e-35 -0.039078673347830765 0.020257050171494487 0.031117464415729049 0.023634106852114204 1.0000000180025095e-35 -0.021729982458055016
decision_type=2 2 2 2 2 2 2 2 2 2 2 2 2 2 2 2 2 2
left_child=1 3 8 -1 5 7 -7 -5 9 10 -2 12 -9 -11 -10 -15 17 -17
right_child=2 -3 -4 4 -6 6 -8 11 14 13 -12 -13 -14 15 -16 16 -18 -19
leaf_value=0.00091189564313166416 -0.00046854747692123052 -0.022404057103558441 -0.00048221934267407833 -0.013597396310094906 -0.019046868397189037 -0.021811844222247599 -0.0067818466317839917 0.0013601642958819865 0.0076441203909260892 0.019786111028356982 0.011070342067127618 0.0020998400645820714 -0.014357247082849167 0.0081292421370744699 6.9875386543571949e-05 0.0097157138225532329 0.018336472705006598 0.015559865914285183
leaf_weight=39 24 24 37 23 21 21 24 20 21 22 26 38 21 24 20 31 20 20
leaf_count=39 24 24 37 23 21 21 24 20 21 22 26 38 21 24 20 31 20 20
internal_value=1.95057e-11 -0.00878864 0.00828643 -0.00721004 -0.00909549 -0.00767386 -0.0137958 -0.00497299 0.00984624 0.011294 0.00553168 -0.00246209 -0.00669022 0.0137565 0.00394937 0.0123602 0.0137903 0.0120075
internal_weight=476 231 245 207 168 147 45 102 208 167 50 79 41 117 41 95 71 51
internal_count=476 231 245 207 168 147 45 102 208 167 50 79 41 117 41 95 71 51
is_linear=0
shrinkage=0.03


Tree=4
num_leaves=17
num_cat=0
split_feature=832 3 236 826 546 562 411 831 779 596 66 742 57 824 576 829
split_gain=36.2407 5.30267 4.88773 3.64622 3.50325 2.28142 1.88767 1.86221 2.42378 1.83821 1.56695 1.29039 1.02983 0.779802 0.604774 0.442369
threshold=1.0000000180025095e-35 -0.029395958408713337 0.071405980736017241 1.0000000180025095e-35 -0.029265268705785271 0.0094503290019929426 0.067782696336507811 1.0000000180025095e-35 1.0000000180025095e-35 -0.024957023561000821 0.034231761470437057 0.0032932559261098508 0.020257050171494487 1.0000000180025095e-35 -0.023022456094622609 1.0000000180025095e-35
decision_type=2 2 2 2 2 2 2 2 2 2 2 2 2 2 2 2
left_child=1 2 -1 5 7 11 -4 10 12 -7 -2 -3 -9 -11 -14 -16
right_child=4 3 6 -5 -6 9 -8 8 -10 13 -12 -13 14 -15 15 -17
leaf_value=-0.028164176043123008 -0.0005006101362120646 0.0059008595844109845 -0.0040639436003667385 -0.015805249764687487 -0.00046775288974262169 -0.012752641968364859 -0.016491556044837291 0.019192527729001912 0.0042441655476303658 -0.0072857858202066911 0.0094860254492490515 -0.0041530192541540598 0.01492093882768562 -0.0006335060163733682 0.012724628230955983 0.0074380681021460164
leaf_weight=20 26 27 22 27 37 29 22 22 34 29 31 20 38 35 28 29
leaf_count=20 26 27 22 27 37 29 22 22 34 29 31 20 38 35 28 29
internal_value=-3.03756e-12 -0.00852498 -0.0158673 -0.00571117 0.00803784 -0.00376446 -0.0102777 0.00955085 0.0112949 -0.00648696 0.00493072 0.00162261 0.0133438 -0.00364782 0.0119894 0.010035
internal_weight=476 231 64 167 245 140 44 208 151 93 57 47 117 64 95 57
internal_count=476 231 64 167 245 140 44 208 151 93 57 47 117 64 95 57
is_linear=0
shrinkage=0.03


Tree=5
num_leaves=19
num_cat=0
split_feature=832 235 546 826 58 551 340 779 831 551 349 824 57 594 562 824 831 48
split_gain=34.0989 5.04865 3.29621 3.25314 3.15774 2.61887 2.6642 1.76225 2.31882 1.72837 1.72727 1.43979 0.968966 0.610646 0.581765 0.595229 0.540883 0.436355
threshold=1.0000000180025095e-35 0.047914922237396247 -0.029265268705785271 1.0000000180025095e-35 0.025988473556935791 -0.028758920729160305 -0.027526359073817726 1.0000000180025095e-35 1.0000000180025095e-35 -0.048799093812704079 0.0061898638959974059 1.0000000180025095e-35 0.020257050171494487 0.031117464415729049 0.023634106852114204 1.0000000180025095e-35 1.0000000180025095e-35 -0.021729982458055016
decision_type=2 2 2 2 2 2 2 2 2 2 2 2 2 2 2 2 2 2
left_child=1 3 7 4 -1 6 -6 8 9 -2 11 -8 -10 -9 -14 17 -13 -16
right_child=2 -3 -4 -5 5 -7 10 13 12 -11 -12 16 14 -15 15 -17 -18 -19
leaf_value=0.0047697888538241386 0.010372933601546619 -0.021294366857036947 -0.00045372001789006835 -0.0152424981488901 -0.014269099706459952 -0.016060948222875595 -0.0099274104224009938 0.0072642965854278624 0.018616751777854833 -0.00081833192187806829 0.0038853089484851807 -0.0049640168926932595 0.0075917676091194156 -6.029141368344426e-05 0.0090455688428013551 0.017380966063588854 0.0016883583637801083 0.014729260034859179
leaf_weight=25 27 24 37 34 23 23 33 21 22 23 25 22 24 20 31 20 22 20
leaf_count=25 27 24 37 34 23 23 33 21 22 23 25 22 24 20 31 20 22 20
internal_value=4.13886e-11 -0.00826923 0.0077967 -0.00675907 -0.00509181 -0.00675762 -0.0050458 0.00926433 0.0106325 0.00522495 -0.00296604 -0.00519051 0.0129435 0.00369133 0.0116297 0.0129946 -0.00163783 0.0112745
internal_weight=476 231 245 207 173 148 125 208 167 50 102 77 117 41 95 71 44 51
internal_count=476 231 245 207 173 148 125 208 167 50 102 77 117 41 95 71 44 51
is_linear=0
shrinkage=0.03


Tree=6
num_leaves=16
num_cat=0
split_feature=832 3 140 826 546 358 99 148 831 757 715 824 111 291 195
split_gain=32.0837 4.84551 4.52699 3.24941 3.1014 2.09493 1.8957 1.66731 1.66755 1.95042 1.41847 2.96022 0.953348 0.886727 0.460354
threshold=1.0000000180025095e-35 -0.029395958408713337 0.0245134336873889 1.0000000180025095e-35 -0.029265268705785271 -0.015951919369399544 0.012967339716851713 -0.001963744813110679 1.0000000180025095e-35 0.020472303032875065 -0.01308248285204172 1.0000000180025095e-35 -0.0072156253736466161 0.019275682978332046 -0.012205875944346188
decision_type=2 2 2 2 2 2 2 2 2 2 2 2 2 2 2
left_child=1 2 -1 5 7 6 10 8 9 -2 -3 -12 13 -10 -15
right_child=4 3 -4 -5 -6 -7 -8 -9 12 -11 11 -13 -14 14 -16
leaf_value=-0.0059927265522336315 0.011569402125477791 0.0023719548841472714 -0.02207641636952758 -0.014860368606944879 -0.00044010838825645778 0.0033877299451870063 -0.012702808674797415 0.0028011166575280101 0.017610508233308793 -0.00016641156015863927 -0.013440642322485263 0.00028564911515962691 0.0065185505932743625 0.0086348938308656205 0.013525286905194927
leaf_weight=28 25 27 36 27 37 31 25 33 30 26 26 31 23 30 41
leaf_count=28 25 27 36 27 37 31 25 33 30 26 26 31 23 30 41
internal_value=2.29504e-11 -0.00802115 -0.0150398 -0.00533137 0.0075628 -0.00349364 -0.00545072 0.0089864 0.0101528 0.00558644 -0.00329237 -0.00597547 0.0120309 0.0132861 0.0114589
internal_weight=476 231 64 167 245 140 109 208 175 51 84 57 124 101 71
internal_count=476 231 64 167 245 140 109 208 175 51 84 57 124 101 71
is_linear=0
shrinkage=0.03


Tree=7
num_leaves=18
num_cat=0
split_feature=832 235 386 57 713 470 829 261 530 267 530 834 824 447 825 428 32
split_gain=30.1875 4.5604 3.11524 2.92907 3.84563 2.33866 2.43343 2.58564 2.14723 1.42175 1.61485 1.44425 1.32064 2.49414 1.21199 1.39981 1.21096
threshold=1.0000000180025095e-35 0.047914922237396247 -0.033044999465346329 0.012703961692750456 0.048528814688324935 0.011713312938809397 1.0000000180025095e-35 -0.036916892975568764 0.03439574874937535 -0.017655941657721993 0.012948433402925731 1.0000000180025095e-35 1.0000000180025095e-35 -0.039078673347830765 1.0000000180025095e-35 0.034006133675575263 0.014134556520730259
decision_type=2 2 2 2 2 2 2 2 2 2 2 2 2 2 2 2 2
left_child=1 2 -1 4 16 6 8 -8 -4 11 -11 -5 13 -10 -12 -16 -2
right_child=3 -3 5 9 -6 -7 7 -9 12 10 14 -13 -14 -15 15 -17 -18
leaf_value=0.00129319074986807 0.011143762412667273 -0.020159820360131558 -0.012283805685279809 -6.1147528141736971e-05 -0.0090683069843798866 -0.017483262069789424 -0.020279497850154125 -0.0058651027127780255 0.0019795594336465003 0.0045191391549047281 0.017190884730468193 0.0098592940071830521 0.0021607874471106024 -0.012823426829917091 0.0052794285300270926 0.014223096470038096 0.0012398264966905115
leaf_weight=39 25 24 23 25 20 21 21 24 20 27 36 28 38 21 28 36 20
leaf_count=39 25 24 23 25 20 21 21 24 20 27 36 28 38 21 28 36 20
internal_value=3.87637e-11 -0.00778052 -0.00634524 0.00733592 0.0018773 -0.00811845 -0.00678061 -0.0125918 -0.00421685 0.00930709 0.0110295 0.00517984 -0.00186824 -0.00560246 0.0127873 0.0103102 0.00674201
internal_weight=476 231 207 245 65 168 147 45 102 180 127 53 79 41 100 64 45
internal_count=476 231 207 245 65 168 147 45 102 180 127 53 79 41 100 64 45
is_linear=0
shrinkage=0.03


Tree=8
num_leaves=19
num_cat=0
split_feature=832 3 236 826 546 562 557 411 831 779 66 742 57 829 824 562 824 48
split_gain=28.4034 4.46453 4.41811 2.94557 2.8232 1.91495 1.64979 1.64076 1.57418 1.9617 1.3603 1.20382 0.884184 0.833552 1.52898 0.535752 0.540711 0.372181
threshold=1.0000000180025095e-35 -0.029395958408713337 0.071405980736017241 1.0000000180025095e-35 -0.029265268705785271 0.0094503290019929426 -0.054746598005294793 0.067782696336507811 1.0000000180025095e-35 1.0000000180025095e-35 0.034231761470437057 0.0032932559261098508 0.020257050171494487 1.0000000180025095e-35 1.0000000180025095e-35 0.023634106852114204 1.0000000180025095e-35 -0.021729982458055016
decision_type=2 2 2 2 2 2 2 2 2 2 2 2 2 2 2 2 2 2
left_child=1 2 -1 5 8 11 -7 -4 10 12 -2 -3 -10 14 -8 -14 17 -17
right_child=4 3 7 -5 -6 6 13 -9 9 -11 -12 -13 15 -15 -16 16 -18 -19
leaf_value=-0.025975422876072116 -0.00083426435621312023 0.0058521961234509947 -0.0031767957107248627 -0.014037792947557236 -0.00051970157508008383 -0.01288792412743946 -0.0075438770771558798 -0.014763153148815036 0.0173402576521039 0.003734455924919423 0.0084705616257927056 -0.0038585866224020715 0.0067909148952458049 -0.0085013121622614565 0.0030852559764452019 0.0082777376268659865 0.016156352883204817 0.013526871375739574
leaf_weight=20 26 27 22 27 37 22 21 22 22 34 31 20 24 21 29 31 20 20
leaf_count=20 26 27 22 27 37 22 21 22 22 34 31 20 24 21 29 31 20 20
internal_value=-6.07879e-12 -0.0075471 -0.0142842 -0.00496523 0.00711584 -0.00321552 -0.00570979 -0.00896997 0.00847409 0.0100776 0.00422626 0.00171995 0.0119209 -0.00348559 -0.00137898 0.0106659 0.0119757 0.0103362
internal_weight=476 231 64 167 245 140 93 44 208 151 57 47 117 71 50 95 71 51
internal_count=476 231 64 167 245 140 93 44 208 151 57 47 117 71 50 95 71 51
is_linear=0
shrinkage=0.03


Tree=9
num_leaves=19
num_cat=0
split_feature=832 3 236 826 57 713 386 630 475 824 528 831 669 32 57 39 824 243
split_gain=26.7248 4.20067 4.157 2.77149 2.68246 3.56933 1.85525 2.84023 1.95402 1.66503 1.60842 1.30953 1.14016 1.12456 1.00794 1.00801 0.735494 0.600769
threshold=1.0000000180025095e-35 -0.029395958408713337 0.071405980736017241 1.0000000180025095e-35 0.012703961692750456 0.048528814688324935 -0.032138615846633904 -0.073356170207262025 0.00045769030111841863 1.0000000180025095e-35 -0.0045436827931553117 1.0000000180025095e-35 -0.023919481784105297 0.014134556520730259 0.020448779687285427 -0.034914754331111901 1.0000000180025095e-35 0.01875304896384478
decision_type=2 2 2 2 2 2 2 2 2 2 2 2 2 2 2 2 2 2
left_child=1 2 -1 6 5 13 -3 -8 9 -9 -4 12 -6 -2 -13 -16 17 -17
right_child=4 3 10 -5 11 -7 7 8 -10 -11 -12 14 -14 -15 15 16 -18 -19
leaf_value=-0.025196160145103931 0.01060709352940321 0.0032254120756988413 -0.0024176186956465242 -0.013616659082472324 2.2085676318965854e-05 -0.0088664742568507777 -0.015203893037047235 -0.010763797938125208 0.0053053704522816195 -0.0011751251904150615 -0.013936922204447909 0.016658611882477997 0.008731706807570112 0.001063015043735504 0.0037602403723956184 0.0067588153632508743 0.015417654790773826 0.013019023686647415
leaf_weight=20 25 32 20 27 24 20 20 28 21 39 24 20 31 20 23 37 23 22
leaf_count=20 25 32 20 27 24 20 20 28 21 39 24 20 31 20 23 37 23 22
internal_value=2.67336e-11 -0.00732069 -0.0138557 -0.00481627 0.00690237 0.00167859 -0.00311906 -0.0049989 -0.00267958 -0.00518233 -0.00870088 0.00878873 0.00493114 0.00636528 0.0104861 0.00931035 0.0108671 0.00909313
internal_weight=476 231 64 167 245 65 140 108 88 67 44 180 55 45 125 105 82 59
internal_count=476 231 64 167 245 65 140 108 88 67 44 180 55 45 125 105 82 59
is_linear=0
shrinkage=0.03


Tree=10
num_leaves=16
num_cat=0
split_feature=832 235 386 546 249 139 824 607 831 779 66 57 562 824 48
split_gain=25.1454 4.08274 2.70403 2.55507 2.13563 2.96049 3.2179 2.65335 1.41858 1.78819 1.27049 0.831518 0.476964 0.479835 0.324908
threshold=1.0000000180025095e-35 0.047914922237396247 -0.033044999465346329 -0.029265268705785271 -0.034112937748432152 -0.022168450057506558 1.0000000180025095e-35 0.0089994627051055449 1.0000000180025095e-35 1.0000000180025095e-35 0.034231761470437057 0.020257050171494487 0.023634106852114204 1.0000000180025095e-35 -0.021729982458055016
decision_type=2 2 2 2 2 2 2 2 2 2 2 2 2 2 2
left_child=1 2 -1 8 5 -4 -7 -6 10 11 -2 -10 -13 14 -14
right_child=3 -3 4 -5 7 6 -8 -9 9 -11 -12 12 13 -15 -16
leaf_value=0.0013734331734191912 -0.0009356096702126355 -0.018814131435938179 0.0018674211386869981 -0.00056861770465164573 -0.019659688274841755 -0.014784513469785453 -0.0019148931882398967 -0.0067820164914398143 0.016525010463188994 0.0034535000741700915 0.0080568067155658233 0.0063962732497020629 0.0078205826708806631 0.015226618777960539 0.012725035093724727
leaf_weight=39 26 24 38 37 24 36 34 36 22 34 31 24 31 20 20
leaf_count=39 26 24 38 37 24 36 34 36 22 34 31 24 31 20 20
internal_value=2.01495e-11 -0.00710107 -0.00574303 0.00669529 -0.00739507 -0.00487395 -0.00853356 -0.0119331 0.00798743 0.00950961 0.003955 0.0112695 0.0100524 0.0112883 0.0097439
internal_weight=476 231 207 245 168 108 70 60 208 151 57 117 95 71 51
internal_count=476 231 207 245 168 108 70 60 208 151 57 117 95 71 51
is_linear=0
shrinkage=0.03


Tree=11
num_leaves=17
num_cat=0
split_feature=832 207 93 57 713 85 528 824 621 267 530 834 825 428 32 605
split_gain=23.6593 3.88721 2.59575 2.4573 3.3134 2.37934 1.52053 2.53373 3.77253 1.23739 1.37281 1.35639 1.07483 1.23002 1.04421 0.732279
threshold=1.0000000180025095e-35 -0.075247827917337404 0.020867678336799148 0.012703961692750456 0.048528814688324935 0.055053858086466796 -0.0066487579606473437 1.0000000180025095e-35 0.021068776026368145 -0.017655941657721993 0.012948433402925731 1.0000000180025095e-35 1.0000000180025095e-35 0.034006133675575263 0.014134556520730259 0.013661026488989593
decision_type=2 2 2 2 2 2 2 2 2 2 2 2 2 2 2 2
left_child=1 -1 5 4 14 6 7 8 -3 11 -11 -5 -12 -14 -2 -9
right_child=3 2 -4 9 -6 -7 -8 15 -10 10 12 -13 13 -15 -16 -17
leaf_value=-0.016420605281389063 0.010097698733210562 -0.014185746236083407 -0.013591382994139888 -0.00062953745462000364 -0.0086652754219248875 0.0029655904474202542 -0.011802829938202069 0.0045432868166468462 0.0015827055766501211 0.0039040875336215524 0.01567442174690465 0.0089844110914106875 0.0044789568418803225 0.012862666789442301 0.00090092196129262444 -0.0030922019351273776
leaf_weight=33 25 36 29 25 20 36 29 26 22 27 36 28 28 36 20 20
leaf_count=33 25 36 29 25 20 36 29 26 22 27 36 28 28 36 20 20
internal_value=-1.88764e-12 -0.00688804 -0.00529928 0.00649444 0.0014947 -0.00387637 -0.00572833 -0.00403448 -0.00820461 0.0082999 0.00990674 0.00444953 0.0115275 0.00919479 0.00601024 0.00122351
internal_weight=476 231 198 245 65 169 133 104 58 180 127 53 100 64 45 46
internal_count=476 231 198 245 65 169 133 104 58 180 127 53 100 64 45 46
is_linear=0
shrinkage=0.03


Tree=12
num_leaves=17
num_cat=0
split_feature=832 235 386 546 649 602 829 824 676 831 779 53 424 57 562 834
split_gain=22.261 3.77483 2.48848 2.32508 1.9699 1.85913 1.66756 1.84509 2.4134 1.3335 1.61766 1.2106 0.967491 0.784706 0.451207 0.456787
threshold=1.0000000180025095e-35 0.047914922237396247 -0.033044999465346329 -0.029265268705785271 -0.0062565128318965426 0.028779357671737674 1.0000000180025095e-35 1.0000000180025095e-35 0.021943695843219761 1.0000000180025095e-35 1.0000000180025095e-35 -0.022655229084193703 0.013475849293172361 0.020257050171494487 0.023634106852114204 1.0000000180025095e-35
decision_type=2 2 2 2 2 2 2 2 2 2 2 2 2 2 2 2
left_child=1 2 -1 9 6 -6 7 8 -4 11 13 -2 -9 -11 -15 -16
right_child=3 -3 4 -5 5 -7 -8 12 -10 10 -12 -13 -14 14 15 -17
leaf_value=0.001451357640326023 0.0087492479867069053 -0.017944122608751056 -0.013351905279373751 -0.00062967262155300867 -0.019239206425845621 -0.0063039167756214739 -0.010317141068024704 0.0064156473604962232 0.00044351200373577218 0.015787344249812041 0.0032479417565114358 -0.00010592075234109706 -0.0026062964162100913 0.0059435292199486863 0.0081194944760169495 0.01294406389073916
leaf_weight=39 24 24 25 37 20 20 39 20 21 22 34 33 23 24 33 38
leaf_count=39 24 24 25 37 20 20 39 20 21 22 34 33 23 24 33 38
internal_value=1.95809e-11 -0.0066814 -0.00537557 0.0062996 -0.0069604 -0.0127716 -0.00514441 -0.00287771 -0.007054 0.00753221 0.00900804 0.00362257 0.00158996 0.0106819 0.0094996 0.0107017
internal_weight=476 231 207 245 168 40 128 89 46 208 151 57 43 117 95 71
internal_count=476 231 207 245 168 40 128 89 46 208 151 57 43 117 95 71
is_linear=0
shrinkage=0.03


Tree=13
num_leaves=18
num_cat=0
split_feature=832 3 236 608 386 542 57 713 411 829 824 267 834 530 825 428 32
split_gain=20.9454 3.58603 3.88952 2.46143 2.29789 2.60285 2.25226 3.07755 1.48268 1.39098 1.75006 1.15735 1.25298 1.2485 1.02697 1.13863 0.970697
threshold=1.0000000180025095e-35 -0.029395958408713337 0.071405980736017241 -0.06065672263503074 -0.032406693324446671 0.022025662474334243 0.012703961692750456 0.048528814688324935 0.067782696336507811 1.0000000180025095e-35 1.0000000180025095e-35 -0.017655941657721993 1.0000000180025095e-35 0.012948433402925731 1.0000000180025095e-35 0.034006133675575263 0.014134556520730259
decision_type=2 2 2 2 2 2 2 2 2 2 2 2 2 2 2 2 2
left_child=1 2 -1 4 -3 9 7 16 -4 10 -6 12 -8 -13 -15 -16 -2
right_child=6 3 8 -5 5 -7 11 -9 -10 -11 -12 13 -14 14 15 -17 -18
leaf_value=-0.023488507932052014 0.0096168397352099401 0.0020113691520588155 -0.0020256998728622089 0.0054363608506641219 -0.007209196237006014 -0.015793267266395 -0.00076628453505691143 -0.0084676907267421473 -0.013039781415242363 -0.010066614283423404 0.0031378039032486931 0.00366869769576523 0.008473951276391745 0.014992295031746226 0.0041213107727734099 0.012187557624032098 0.00074968489073216904
leaf_weight=20 25 29 22 21 31 26 25 20 22 32 28 27 28 36 28 36 20
leaf_count=20 25 29 22 21 31 26 25 20 22 32 28 27 28 36 28 36 20
internal_value=-2.03861e-11 -0.00648096 -0.0125189 -0.00416701 -0.00554831 -0.00742208 0.00611061 0.00132401 -0.00753274 -0.00503031 -0.00229876 0.00783911 0.00411535 0.00939312 0.0109387 0.00865857 0.00567588
internal_weight=476 231 64 167 146 117 245 65 44 91 59 180 53 127 100 64 45
internal_count=476 231 64 167 146 117 245 65 44 91 59 180 53 127 100 64 45
is_linear=0
shrinkage=0.03


Tree=14
num_leaves=17
num_cat=0
split_feature=832 207 548 747 824 24 144 756 747 91 171 641 825 113 621 834
split_gain=19.7075 3.48786 2.40982 2.70032 4.2919 3.17958 2.13744 2.06431 1.71779 1.67748 1.20739 0.838037 0.719637 1.03412 0.879158 0.664879
threshold=1.0000000180025095e-35 -0.075247827917337404 0.055034646764397628 0.041090233251452453 1.0000000180025095e-35 -0.058571042492985718 -0.027934032492339608 1.9734819051203633e-34 0.031196198426187042 0.0039951440412551173 -0.031974790617823594 -0.019793262705206868 1.0000000180025095e-35 0.013248543720692398 0.017892688512802127 1.0000000180025095e-35
decision_type=2 2 2 2 2 2 2 2 2 2 2 2 2 2 2 2
left_child=1 -1 3 7 5 -5 -2 -3 -8 -9 15 12 -12 14 -14 -10
right_child=6 2 -4 4 -6 -7 8 9 10 -11 11 -13 13 -15 -16 -17
leaf_value=-0.015316163487732411 -0.0023851005367934702 0.0079094476743855249 -0.014390138472829547 -0.005328429559511798 -0.00025633201647836426 -0.021312869692919775 0.00056145469742742448 -0.0069051783906884101 0.00042812365147730578 0.0023403171744112942 0.014153423998504878 0.004269280605526133 0.0077666391864685078 0.0033597388411206858 0.015780638666315509 0.006994239638692566
leaf_weight=33 25 22 21 21 39 24 33 38 23 33 36 22 28 21 22 35
leaf_count=33 25 22 21 21 39 24 33 38 23 33 36 22 28 21 22 35
internal_value=3.24447e-11 -0.00628653 -0.00478159 -0.00364159 -0.00754051 -0.0138535 0.0059273 -0.000119983 0.00687189 -0.00260798 0.00798549 0.00960188 0.0106983 0.0089464 0.0112928 0.00439044
internal_weight=476 231 198 177 84 45 245 93 220 71 187 129 107 71 50 58
internal_count=476 231 198 177 84 45 245 93 220 71 187 129 107 71 50 58
is_linear=0
shrinkage=0.03


Tree=15
num_leaves=18
num_cat=0
split_feature=832 235 386 57 713 249 139 829 824 607 328 565 421 750 831 824 744
split_gain=18.5428 3.38766 2.18557 2.10385 2.81406 1.77194 2.67292 2.68042 2.45832 2.33475 1.07473 1.36608 0.916186 0.882149 0.834652 0.540719 0.186836
threshold=1.0000000180025095e-35 0.047914922237396247 -0.033044999465346329 0.012703961692750456 0.048528814688324935 -0.034112937748432152 -0.022168450057506558 1.0000000180025095e-35 1.0000000180025095e-35 0.0089994627051055449 0.04908933304250241 -0.0076620653271675101 0.022351154126226905 -0.026850570924580094 1.0000000180025095e-35 1.0000000180025095e-35 -0.0014003498363308606
decision_type=2 2 2 2 2 2 2 2 2 2 2 2 2 2 2 2 2
left_child=1 2 -1 4 12 6 -4 8 -8 -7 11 14 -2 -12 -5 16 -16
right_child=3 -3 5 10 -6 9 7 -9 -10 -11 13 -13 -14 -15 15 -17 -18
leaf_value=0.001537067867242373 0.0098608498408326081 -0.016767442529089748 0.0023559129982574007 0.0025161962365002734 -0.0082399052856490015 -0.017727605761028827 -0.010933328181589869 -0.016198293054476381 0.002692496756521555 -0.0056477897769461076 0.007539548483293722 0.015502281310036779 0.0012805171916261315 0.00041718456739607942 0.0093445804482325898 0.013272386759519578 0.0056739194183431279
leaf_weight=39 21 24 38 23 20 24 22 22 26 36 34 24 24 29 24 20 26
leaf_count=39 21 24 38 23 20 24 22 22 26 36 34 24 24 29 24 20 26
internal_value=-2.42968e-11 -0.00609793 -0.00486089 0.00574948 0.00112326 -0.00634613 -0.00404969 -0.00752701 -0.00355267 -0.0104797 0.00742005 0.00912108 0.00528467 0.004261 0.00747432 0.00910342 0.00743584
internal_weight=476 231 207 245 65 168 108 70 48 60 180 117 45 63 93 70 50
internal_count=476 231 207 245 65 168 108 70 48 60 180 117 45 63 93 70 50
is_linear=0
shrinkage=0.03


Tree=16
num_leaves=19
num_cat=0
split_feature=832 207 93 53 528 311 651 57 829 831 824 289 47 486 824 173 106 171
split_gain=17.4469 3.21606 2.23884 2.1232 2.76726 2.04894 1.98529 2.67017 1.796 1.72482 1.47072 1.20534 1.06245 0.992595 0.777715 0.832878 0.471804 0.065562
threshold=1.0000000180025095e-35 -0.075247827917337404 0.020867678336799148 -0.0049361081328243009 -0.0045436827931553117 -0.016548693180084225 -0.013240176253020762 0.012703961692750456 1.0000000180025095e-35 1.0000000180025095e-35 1.0000000180025095e-35 -0.0087780002504587156 -0.010476326104253529 0.001976094848942012 1.0000000180025095e-35 0.047781368717551238 0.022479982115328315 -0.031974790617823594
decision_type=2 2 2 2 2 2 2 2 2 2 2 2 2 2 2 2 2 2
left_child=1 -1 3 4 5 8 7 -2 10 11 -3 -8 -7 -9 15 -11 17 -17
right_child=6 2 -4 -5 -6 12 9 13 -10 14 -12 -13 -14 -15 -16 16 -18 -19
leaf_value=-0.014585664924234151 -0.0058324223257867347 -0.0084953489690087741 -0.012170836220591745 0.0045630354216943175 -0.014395633115517821 0.0074371842714026568 -0.0025285954782979705 0.0016986210434697569 -0.011842463262645261 0.012481368373219783 0.0021562129711466173 0.0075414686389267439 -0.0019250777130946518 0.010520666221326047 0.013519067478233148 0.0068084306047031919 0.0030790921869791213 0.0090621500978103047
leaf_weight=33 28 20 29 27 22 20 23 24 28 26 28 20 24 22 28 21 27 26
leaf_count=33 28 20 29 27 22 20 23 24 28 26 28 20 24 22 28 21 27 26
internal_value=-3.64039e-11 -0.00591499 -0.00446988 -0.00314842 -0.00461468 -0.0028215 0.00557699 0.00147181 -0.00580424 0.00735351 -0.00228194 0.00215516 0.0023305 0.00591786 0.00909983 0.00786244 0.00623957 0.00805517
internal_weight=476 231 198 169 142 120 245 74 76 171 48 43 44 46 128 100 74 47
internal_count=476 231 198 169 142 120 245 74 76 171 48 43 44 46 128 100 74 47
is_linear=0
shrinkage=0.03


Tree=17
num_leaves=18
num_cat=0
split_feature=832 235 548 114 824 130 144 91 747 594 567 171 641 424 825 648 834
split_gain=16.4158 3.11546 2.04652 2.00341 1.90432 3.41451 1.90321 1.59567 1.53868 1.4021 1.21802 1.06711 0.734679 0.648161 0.755333 0.790857 0.6437
threshold=1.0000000180025095e-35 0.047914922237396247 0.055034646764397628 0.0065963717643171558 1.0000000180025095e-35 0.0096354223787784594 -0.027934032492339608 0.0017553865327499809 0.031196198426187042 0.0050485713873058566 0.017514849081635479 -0.031974790617823594 -0.019793262705206868 0.011910226196050646 1.0000000180025095e-35 -0.0043944732751697293 1.0000000180025095e-35
decision_type=2 2 2 2 2 2 2 2 2 2 2 2 2 2 2 2 2
left_child=1 2 3 7 5 -5 -2 -1 -8 -7 -6 16 13 -13 -15 -16 -10
right_child=6 -3 -4 4 10 9 8 -9 11 -11 -12 12 -14 14 15 -17 -18
leaf_value=-0.003592482908628881 -0.002434050341695547 -0.015969428363023324 -0.01342873321047851 -0.014874869023223181 -0.0067710594292148011 0.00257382584290336 0.00032863538204268972 0.0083912874637171609 7.6514752176792727e-05 -0.0072713643177412446 0.0024626512701312699 0.01477098224312067 0.0038816125956575636 0.01253865000942061 0.0093591409828513855 0.0019187129549682138 0.0065372075285496448
leaf_weight=20 25 24 21 37 20 23 33 20 23 30 36 20 22 31 36 20 35
leaf_count=20 25 24 21 37 20 23 33 20 23 30 36 20 22 31 36 20 35
internal_value=-6.08979e-13 -0.00573754 -0.00455124 -0.00354894 -0.00517862 -0.00788126 0.00540968 0.0023994 0.00630102 -0.00299892 -0.000835103 0.00735497 0.00887455 0.00990113 0.00878163 0.00670185 0.00397521
internal_weight=476 231 207 186 146 90 245 40 220 53 56 187 129 107 87 56 58
internal_count=476 231 207 186 146 90 245 40 220 53 56 187 129 107 87 56 58
is_linear=0
shrinkage=0.03


Tree=18
num_leaves=19
num_cat=0
split_feature=832 3 236 608 386 542 651 57 831 270 829 824 289 486 680 824 829 555
split_gain=15.4456 2.97161 3.51419 2.12593 1.98697 2.22462 1.83277 2.47802 1.60409 1.43802 1.20888 1.31868 1.11303 0.935475 0.712577 0.759343 0.381544 0.627518
threshold=1.0000000180025095e-35 -0.029395958408713337 0.071405980736017241 -0.06065672263503074 -0.032406693324446671 0.022025662474334243 -0.013240176253020762 0.012703961692750456 1.0000000180025095e-35 0.035315565764904029 1.0000000180025095e-35 1.0000000180025095e-35 -0.0087780002504587156 0.001976094848942012 -0.0052991376724094144 1.0000000180025095e-35 1.0000000180025095e-35 -5.4918758115791404e-33
decision_type=2 2 2 2 2 2 2 2 2 2 2 2 2 2 2 2 2 2
left_child=1 2 -1 4 -3 10 7 -2 12 -4 11 -6 -8 -9 -10 16 17 -16
right_child=6 3 9 -5 5 -7 8 13 14 -11 -12 -13 -14 -15 15 -17 -18 -19
leaf_value=-0.021488722932524979 -0.0057334565898470051 0.0022869318492453675 -0.00064648174082062074 0.0054659120542263342 -0.0059899577713241016 -0.014224213648300904 -0.0025596484118748613 0.0014901117770932614 0.013181790536642075 -0.011504631406911041 -0.0089690416777739295 0.0029917230313679152 0.0071171261742711068 0.010054558695039965 0.010971118934038612 0.012625642567873 0.0036741111497394737 0.0042278014253015099
leaf_weight=20 28 29 21 21 31 26 23 24 25 23 32 28 20 22 27 21 32 23
leaf_count=20 28 29 21 21 31 26 23 24 25 23 32 28 20 22 27 21 32 23
internal_value=4.61045e-12 -0.00556542 -0.0110618 -0.00345901 -0.00474273 -0.00648512 0.00524739 0.00130306 0.0069543 -0.00632233 -0.00427395 -0.00172747 0.00194118 0.00558615 0.00863839 0.00753563 0.00623209 0.00786919
internal_weight=476 231 64 167 146 117 245 74 171 44 91 59 43 46 128 103 82 50
internal_count=476 231 64 167 146 117 245 74 171 44 91 59 43 46 128 103 82 50
is_linear=0
shrinkage=0.03


Tree=19
num_leaves=18
num_cat=0
split_feature=832 235 826 58 747 551 340 693 256 589 824 824 146 689 829 831 562
split_gain=14.5328 2.89675 1.92195 2.24333 1.76415 1.67646 1.69955 1.59118 1.44668 0.942244 0.699072 0.696746 1.1458 0.560822 0.887784 0.555537 0.209967
threshold=1.0000000180025095e-35 0.047914922237396247 1.0000000180025095e-35 0.025988473556935791 0.031196198426187042 -0.028758920729160305 -0.027526359073817726 0.023155687376856807 -0.067726988345384584 -0.054573068395256989 1.0000000180025095e-35 1.0000000180025095e-35 -0.023171308450400826 0.032576667144894607 1.0000000180025095e-35 1.0000000180025095e-35 0.024674142710864547
decision_type=2 2 2 2 2 2 2 2 2 2 2 2 2 2 2 2 2
left_child=1 2 3 -1 -2 6 -5 -6 -8 -9 -10 13 -13 14 16 -12 -11
right_child=4 -3 -4 5 7 -7 8 9 10 11 15 12 -14 -15 -16 -17 -18
leaf_value=0.0053389744235202673 -0.00085157295051766066 -0.015264669193129521 -0.010775189375340499 -0.010374126881361008 -0.0010822983706020751 -0.011820610529216733 0.0037063171930939837 0.012810925352994515 -0.0076210433368881546 0.0065127774730324743 -0.0049826354663819079 0.014163640183599099 0.0045871568119830704 0.00088864608465329456 0.0025331227038357705 0.0020036320228661812 0.010235385151579976
leaf_weight=25 38 24 34 23 24 23 34 23 27 25 20 23 22 23 37 21 30
leaf_count=25 38 24 34 23 24 23 34 23 27 25 20 23 22 23 37 21 30
internal_value=-1.27666e-11 -0.00539845 -0.00425455 -0.00297303 0.00508997 -0.00437709 -0.00300748 0.00618069 -0.00134637 0.00713321 -0.00387271 0.00631704 0.0094818 0.00507866 0.00612616 -0.0014043 0.00854329
internal_weight=476 231 207 173 245 148 125 207 102 183 68 160 45 115 92 41 55
internal_count=476 231 207 173 245 148 125 207 102 183 68 160 45 115 92 41 55
is_linear=0
shrinkage=0.03


Tree=20
num_leaves=20
num_cat=0
split_feature=832 207 607 264 742 57 825 500 415 829 13 741 205 527 831 824 281 38 0
split_gain=13.6739 2.79693 2.05507 2.51424 1.75439 1.69147 2.45671 1.4093 1.30046 1.94918 1.21696 0.925296 0.921999 0.968101 0.901636 0.736431 0.564014 0.119641 0.10567
threshold=1.0000000180025095e-35 -0.075247827917337404 0.011955087073147299 0.00042927922913804656 0.0044097686186432847 0.012703961692750456 1.0000000180025095e-35 -0.0091574704274535162 -0.028253327123820778 1.0000000180025095e-35 0.12425535172224046 0.0014306110679171982 -0.042489103972911828 6.0519090766320012e-05 1.0000000180025095e-35 1.0000000180025095e-35 -0.010225029662251471 -0.03103443048894405 0.018936223350465301
decision_type=2 2 2 2 2 2 2 2 2 2 2 2 2 2 2 2 2 2 2
left_child=1 -1 3 8 10 6 -2 -5 -3 18 -4 -8 13 14 -7 16 -16 -18 -10
right_child=5 2 4 7 -6 12 11 -9 9 -11 -12 -13 -14 -15 15 -17 17 -19 -20
leaf_value=-0.013322456319901076 -0.0079593298922991367 0.0031004589893431828 0.0096137982169166216 -0.017618032630000797 -0.0058787380554713303 0.0026707610437789789 0.00047008725612059885 -0.0064907281617633998 -0.0025560152605175971 -0.011058295788243412 -0.00085170214343816041 0.009075913446193391 0.011781411373615266 -0.00041615036449262072 0.010623150555683032 0.012508033972978592 0.006531836290843784 0.0035157439855714166 0.00049093098778809827
leaf_weight=33 20 22 20 21 24 39 23 20 20 30 20 22 25 21 21 25 20 29 21
leaf_count=33 20 22 20 21 24 39 23 20 20 30 20 22 25 21 21 25 20 29 21
internal_value=-9.63361e-12 -0.0052365 -0.00388884 -0.00600107 0.000533628 0.00493727 0.000789162 -0.0121901 -0.00327258 -0.00524732 0.00438105 0.00467738 0.0064352 0.00557291 0.00651149 0.00808821 0.00650971 0.0047468 -0.000995384
internal_weight=476 231 198 134 64 245 65 41 93 71 40 45 180 155 134 95 70 49 41
internal_count=476 231 198 134 64 245 65 41 93 71 40 45 180 155 134 95 70 49 41
is_linear=0
shrinkage=0.03


Tree=21
num_leaves=18
num_cat=0
split_feature=832 235 826 58 663 434 551 340 256 704 605 436 161 824 834 314 831
split_gain=12.8658 2.68704 1.78576 2.05859 1.63479 2.17887 1.56328 1.55344 1.34663 1.32632 1.25976 0.853285 0.693124 0.646033 0.522523 1.17591 0.507795
threshold=1.0000000180025095e-35 0.047914922237396247 1.0000000180025095e-35 0.025988473556935791 0.034823639318346984 -0.041158521547913544 -0.028758920729160305 -0.027526359073817726 -0.067726988345384584 -0.13352408260107038 0.0034347091568633918 -0.010305767878890036 -0.044545238837599747 1.0000000180025095e-35 1.0000000180025095e-35 0.009710073936730625 1.0000000180025095e-35
decision_type=2 2 2 2 2 2 2 2 2 2 2 2 2 2 2 2 2
left_child=1 2 3 -1 9 -6 7 -5 -9 -2 11 -11 -12 -10 -14 -16 -15
right_child=4 -3 -4 6 5 -7 -8 8 13 10 12 -13 14 16 15 -17 -18
leaf_value=0.0052199960187077517 0.0002842166188413337 -0.014581780696753411 -0.010263054862289745 -0.0098077081273431361 0.005818713079020381 -0.0071263462753797116 -0.011275260663672309 0.0036980917032205444 -0.0072174905695848992 0.0055282359654083846 0.008513971809297801 0.013149850814101787 -8.8461697474122043e-05 -0.004662351373583078 0.0097310918793082242 0.00022118708118796347 0.0020169740170240401
leaf_weight=25 31 24 34 23 25 22 23 34 27 20 36 39 25 20 25 22 21
leaf_count=25 31 24 34 23 25 22 23 34 27 20 36 39 25 20 25 22 21
internal_value=-7.82135e-12 -0.00507941 -0.00397768 -0.00274241 0.00478915 -0.000240676 -0.00408741 -0.00276484 -0.00117674 0.0059831 0.00704098 0.0105663 0.00511514 -0.00361416 0.00341572 0.00527965 -0.00124123
internal_weight=476 231 207 173 245 47 148 125 102 198 167 59 108 68 72 47 41
internal_count=476 231 207 173 245 47 148 125 102 198 167 59 108 68 72 47 41
is_linear=0
shrinkage=0.03


Tree=22
num_leaves=18
num_cat=0
split_feature=832 93 666 95 144 207 824 505 685 765 682 207 190 834 594 18 825
split_gain=12.1054 2.6154 2.2118 1.85794 1.58922 1.53493 1.35155 1.83092 1.25253 1.10116 1.09203 0.849361 0.737447 1.4246 0.642768 0.6101 0.423855
threshold=1.0000000180025095e-35 0.020867678336799148 0.010268614627420904 -0.020921254530549046 -0.027934032492339608 -0.059974730014801018 1.0000000180025095e-35 0.0075316419824957856 -0.037348730489611619 0.0042759249918162831 0.030526358634233478 -0.055241670459508889 0.023053538985550407 1.0000000180025095e-35 0.034076493233442313 -0.0022501011844724412 1.0000000180025095e-35
decision_type=2 2 2 2 2 2 2 2 2 2 2 2 2 2 2 2 2
left_child=1 2 3 6 -2 9 7 -1 -6 -5 11 -10 13 -13 -15 -8 -14
right_child=4 -3 -4 5 8 -7 15 -9 10 -11 -12 12 16 14 -16 -17 -18
leaf_value=-0.0032485205051489175 -0.0025220917839556931 -0.012121037510836399 -0.012032821523025632 0.0018412709400057793 -0.0016982308966107665 0.0061429395200684666 -0.0046265867581734288 -0.015378132132547241 0.011805982780177146 -0.0074772365584171241 0.0015987151465685057 -0.0012441710672444768 0.01183982860762626 0.0044845388893937242 0.011475428944453596 0.0023428702130913735 0.0065657868620473889
leaf_weight=24 25 38 24 25 20 32 26 21 30 21 38 27 24 29 20 20 32
leaf_count=24 25 38 24 25 20 32 26 21 30 21 38 27 24 29 20 20 32
internal_value=2.22094e-11 -0.00492702 -0.00351059 -0.00230033 0.00464548 0.00109723 -0.00521252 -0.00890901 0.00545998 -0.00241283 0.0061758 0.00724943 0.00621385 0.00428905 0.00733796 -0.00159639 0.00882609
internal_weight=476 231 193 169 245 78 91 45 220 46 200 162 132 76 49 46 56
internal_count=476 231 193 169 245 78 91 45 220 46 200 162 132 76 49 46 56
is_linear=0
shrinkage=0.03


Tree=23
num_leaves=19
num_cat=0
split_feature=832 235 386 57 825 630 692 741 388 829 824 186 205 831 737 755 828 834
split_gain=11.39 2.5203 1.71828 1.49937 2.23209 1.48442 1.8256 1.51263 1.35392 1.51389 1.21407 0.859533 0.823256 0.867926 0.964793 0.838978 0.480864 0.768056
threshold=1.0000000180025095e-35 0.047914922237396247 -0.033044999465346329 0.012703961692750456 1.0000000180025095e-35 -0.064718466252088533 0.047440810129046447 0.010110434610396625 -0.020096158608794209 1.0000000180025095e-35 1.0000000180025095e-35 -0.046888070181012147 -0.042489103972911828 1.0000000180025095e-35 -0.020581183955073353 -0.0055189835838973514 1.0000000180025095e-35 1.0000000180025095e-35
decision_type=2 2 2 2 2 2 2 2 2 2 2 2 2 2 2 2 2 2
left_child=1 2 -1 4 -2 7 -7 -4 -8 10 -10 -6 13 14 -5 -15 17 -17
right_child=3 -3 5 12 11 6 8 -9 9 -11 -12 -13 -14 15 -16 16 -18 -19
leaf_value=0.0019606908561231999 -0.0077382970084436224 -0.01398203435819596 -0.015907555986195802 0.0052956805458485049 6.7507147111675952e-05 0.0036435811608456648 -0.011852606547657739 -0.0042397809152025729 -0.0057226158893452245 -0.010149862900037656 0.0030049913388211281 0.0083618819049519049 0.010968244039267301 0.0024765293207019566 -0.0032692209358792753 0.0031002439089262714 0.011955755806784905 0.010392233790973059
leaf_weight=39 20 24 20 29 22 26 22 20 26 22 32 23 25 31 20 26 23 26
leaf_count=39 20 24 20 29 22 26 22 20 26 22 32 23 25 31 20 26 23 26
internal_value=9.42542e-12 -0.00477921 -0.00371222 0.00450611 0.000600654 -0.00502914 -0.00345273 -0.0100737 -0.00526159 -0.00344907 -0.000907384 0.00430685 0.00591642 0.00510161 0.0017998 0.00662792 0.00834382 0.00674624
internal_weight=476 231 207 245 65 168 128 40 102 80 58 45 180 155 49 106 75 52
internal_count=476 231 207 245 65 168 128 40 102 80 58 45 180 155 49 106 75 52
is_linear=0
shrinkage=0.03


Tree=24
num_leaves=18
num_cat=0
split_feature=832 207 607 440 747 742 13 693 363 829 824 589 824 146 689 829 562
split_gain=10.7168 2.41671 1.82631 2.55342 1.44909 1.44664 1.34834 1.27286 1.07615 1.92795 1.21873 0.804659 0.623994 0.950884 0.469504 0.814697 0.195914
threshold=1.0000000180025095e-35 -0.075247827917337404 0.0085291895084083098 0.001079229172319174 0.031196198426187042 0.0044097686186432847 0.128047950565815 0.023155687376856807 -0.031735161319375031 1.0000000180025095e-35 1.0000000180025095e-35 -0.054573068395256989 1.0000000180025095e-35 -0.023171308450400826 0.032576667144894607 1.0000000180025095e-35 0.024674142710864547
decision_type=2 2 2 2 2 2 2 2 2 2 2 2 2 2 2 2 2
left_child=1 -1 3 -3 -2 6 -4 -6 -5 10 -10 -9 14 -14 15 16 -13
right_child=4 2 5 8 7 -7 -8 11 9 -11 -12 12 13 -15 -16 -17 -18
leaf_value=-0.012152121607637539 -0.0010139921939882792 -0.013966814200752057 0.0080588115357722225 0.0015791670658758708 -0.001136524265166372 -0.0053527183151947186 -0.0020324227814985944 0.011458238950404135 -0.0078175903167575587 -0.012984911778143473 0.0018086945869285483 0.0055977683365345003 0.01271721994423348 0.0039932121216340669 0.00045148512834440103 0.0018016917880221796 0.0091936429208144543
leaf_weight=33 38 26 26 28 24 26 22 23 20 21 29 25 23 22 23 37 30
leaf_count=33 38 26 26 28 24 26 22 23 20 21 29 25 23 22 23 37 30
internal_value=-1.44468e-11 -0.00463584 -0.00338312 -0.0056089 0.00437093 0.000346556 0.00343366 0.00535947 -0.00339149 -0.00537975 -0.0021204 0.0062114 0.00545717 0.00845215 0.00428522 0.00524365 0.00755915
internal_weight=476 231 198 124 245 74 48 207 98 70 49 183 160 45 115 92 55
internal_count=476 231 198 124 245 74 48 207 98 70 49 183 160 45 115 92 55
is_linear=0
shrinkage=0.03


Tree=25
num_leaves=18
num_cat=0
split_feature=832 93 349 261 829 824 663 434 749 492 704 605 436 825 250 468 28
split_gain=10.0835 2.3532 2.04308 2.03922 1.98 1.44258 1.4269 1.95091 1.28089 1.25036 1.15217 1.13265 0.756011 0.659779 0.704806 0.434777 0.151243
threshold=1.0000000180025095e-35 0.020867678336799148 0.021531058475375179 -0.033600978553295129 1.0000000180025095e-35 1.0000000180025095e-35 0.034823639318346984 -0.041158521547913544 -0.034779572859406464 0.021935113705694679 -0.13352408260107038 0.0034347091568633918 -0.010305767878890036 1.0000000180025095e-35 0.0046302140690386304 -0.011289110872894524 0.000441224328824319
decision_type=2 2 2 2 2 2 2 2 2 2 2 2 2 2 2 2 2
left_child=1 2 3 4 5 -1 10 -8 9 -5 -2 12 -12 14 -13 16 -15
right_child=6 -3 -4 8 -6 -7 7 -9 -10 -11 11 13 -14 15 -16 -17 -18
leaf_value=-0.0071236591017053976 4.3670469895005224e-05 -0.011320638788410609 -0.012231260335072875 0.0036971482838271184 -0.012696048910729587 0.0020285519164416096 0.0052743267416954032 -0.0069748806140639561 0.0077971618864685292 -0.004544501401030937 0.0049417742039076984 0.011543099756352603 0.012115818161803942 0.0029979995052729336 0.0036740331471498524 0.0063855533413588999 -0.00042503411093583471
leaf_weight=31 31 38 20 30 24 31 25 22 20 37 20 20 39 21 21 20 26
leaf_count=31 31 38 20 30 24 31 25 22 20 37 20 20 39 21 21 20 26
internal_value=-2.12116e-11 -0.00449676 -0.0031532 -0.00210371 -0.00537969 -0.00254755 0.0042398 -0.000459345 0.00113461 -0.00085421 0.00535526 0.00634124 0.00968394 0.00451514 0.0075126 0.00268087 0.00110441
internal_weight=476 231 193 173 86 62 245 47 87 67 198 167 59 108 41 67 47
internal_count=476 231 193 173 86 62 245 47 87 67 198 167 59 108 41 67 47
is_linear=0
shrinkage=0.03


Tree=26
num_leaves=18
num_cat=0
split_feature=832 235 548 363 144 433 235 824 130 685 682 207 190 834 831 319 825
split_gain=9.48754 2.30728 1.56628 1.47895 1.37715 1.17312 1.06704 1.79048 1.94429 1.06534 0.931352 0.768787 0.64554 1.2768 0.636286 0.574474 0.370181
threshold=1.0000000180025095e-35 0.047914922237396247 0.055034646764397628 -0.040238946676254266 -0.027934032492339608 0.031749384477734573 0.035142332315444953 1.0000000180025095e-35 0.0096354223787784594 -0.037348730489611619 0.030526358634233478 -0.055241670459508889 0.023053538985550407 1.0000000180025095e-35 1.0000000180025095e-35 0.055426403880119331 1.0000000180025095e-35
decision_type=2 2 2 2 2 2 2 2 2 2 2 2 2 2 2 2 2
left_child=1 2 3 5 -2 -1 7 8 -5 -6 11 -11 13 -13 -9 -15 -14
right_child=4 -3 -4 6 9 -7 -8 14 -10 10 -12 12 16 15 -16 -17 -18
leaf_value=-0.0021301185828633607 -0.0025596120022237301 -0.013167166765779255 -0.011107321360281535 -0.013577544364062222 -0.001730860401992686 0.0077076992662623526 0.0015398105817775313 -0.0048791852047932998 -0.0032793899714438752 0.01085753384977579 0.0013040172637097144 -0.0015019359548265735 0.010797762564616276 0.003925225504770361 0.0019776540383664443 0.010534298851154745 0.0058689550062990745
leaf_weight=24 25 24 21 33 20 20 26 21 33 30 38 27 24 29 29 20 32
leaf_count=24 25 24 21 33 20 20 26 21 33 30 38 27 24 29 29 20 32
internal_value=-4.3465e-11 -0.00436186 -0.00334095 -0.00246411 0.00411261 0.00234162 -0.0039532 -0.00518439 -0.00842847 0.00487082 0.00553098 0.00652249 0.00553726 0.00373638 -0.000902218 0.00662281 0.0079813
internal_weight=476 231 207 186 245 44 142 116 66 220 200 162 132 76 50 49 56
internal_count=476 231 207 186 245 44 142 116 66 220 200 162 132 76 50 49 56
is_linear=0
shrinkage=0.03


Tree=27
num_leaves=20
num_cat=0
split_feature=832 528 402 524 826 386 57 713 829 530 421 750 184 240 829 451 289 616 834
split_gain=8.92682 2.23065 3.44233 2.12794 1.81479 1.404 1.32329 2.00255 0.959703 0.825555 0.763595 0.745526 1.06781 1.04463 0.916172 0.502566 0.324549 0.292815 0.211325
threshold=1.0000000180025095e-35 -0.0045436827931553117 -0.026187397539615628 0.034615129232406623 1.0000000180025095e-35 -0.033044999465346329 0.012703961692750456 0.048528814688324935 1.0000000180025095e-35 0.03439574874937535 0.022351154126226905 -0.026850570924580094 0.054061323404312141 -0.022139067761600014 1.0000000180025095e-35 -0.0045466595329344264 -0.0087780002504587156 0.0091159427538514155 1.0000000180025095e-35
decision_type=2 2 2 2 2 2 2 2 2 2 2 2 2 2 2 2 2 2 2
left_child=1 4 3 -3 5 -1 7 10 9 -7 -2 12 -8 -13 18 -11 -17 -14 -15
right_child=6 2 -4 -5 -6 8 11 -9 -10 15 -12 13 17 14 -16 16 -18 -19 -20
leaf_value=0.0058618349488824602 0.0080084659105965073 -0.020041514536365865 0.0023082720008678736 -0.0078958243094825152 -0.0093723452900751278 -0.0060486325789242982 0.013021263020194095 -0.0075783139332197607 -0.0079173320498583562 0.0048761999225243931 0.00017518315464258192 -0.0016275238412199542 0.0075027701002545648 0.00589533641636889 0.0012614888752878254 -0.0034264323403212153 0.0017876106926373073 0.0028164997696876522 0.0096846937846678943
leaf_weight=24 21 20 20 37 26 20 23 20 21 20 24 25 24 27 31 22 21 24 26
leaf_count=24 21 20 20 37 26 20 23 20 21 20 24 25 24 27 31 22 21 24 26
internal_value=1.30527e-11 -0.004231 -0.00840013 -0.0121575 -0.00214644 -0.000678674 0.00398923 0.000320245 -0.00218802 -0.000738438 0.00383072 0.00531414 0.00770636 0.00375591 0.00535812 0.000947338 -0.000880039 0.00515963 0.00775427
internal_weight=476 231 77 57 154 128 245 65 104 83 45 180 71 109 84 63 43 48 53
internal_count=476 231 77 57 154 128 245 65 104 83 45 180 71 109 84 63 43 48 53
is_linear=0
shrinkage=0.03


Tree=28
num_leaves=19
num_cat=0
split_feature=832 31 542 85 423 834 47 563 46 537 824 336 14 421 513 634 416 605
split_gain=8.39925 2.12545 3.13493 2.14985 1.89346 1.26303 2.89005 1.33099 1.21139 0.990735 1.30107 1.66713 0.983357 0.720326 0.702797 0.563013 0.504982 0.478113
threshold=1.0000000180025095e-35 -0.041104288771748536 0.0060845753178000459 0.055053858086466796 -0.022889365442097184 1.0000000180025095e-35 -0.033401189371943467 -0.047687895596027367 0.035231133922934539 0.044209925457835204 1.0000000180025095e-35 -0.024358765222132202 -0.0017198835266754029 0.016549283638596538 -0.072376307100057588 0.045423211529850967 -0.0049877695273607961 0.0042961721774190673
decision_type=2 2 2 2 2 2 2 2 2 2 2 2 2 2 2 2 2 2
left_child=1 2 -1 4 9 6 7 -2 12 10 11 -3 -7 -11 -14 17 -12 -10
right_child=5 3 -4 -5 -6 8 -8 -9 15 13 16 -13 14 -15 -16 -17 -18 -19
leaf_value=-0.01841206791145461 -0.00097737941658124325 -0.014780827213078737 -0.0022070924206425181 0.0042248959153551946 -0.011954721491783858 0.0064911837182631375 -0.0082002871308435241 0.0083076632332945745 0.013377782931285245 -0.0032601146825419905 -0.0041143687488511202 -0.0025316683859273326 0.0031397680004825817 0.0041829765602946281 -0.0044052018150687218 0.005014666418234507 0.0023401662781834601 0.0073895910728190625
leaf_weight=21 24 20 22 33 24 35 23 33 21 22 24 20 25 25 20 36 20 28
leaf_count=21 24 20 22 33 24 35 23 33 21 22 24 20 25 25 20 36 20 28
internal_value=-4.61045e-12 -0.00410407 -0.0101212 -0.00272783 -0.00420808 0.00386955 0.000776115 0.00439817 0.0053694 -0.00278885 -0.00474037 -0.00865625 0.00271977 0.000698976 -0.000213552 0.00786318 -0.00118049 0.00995596
internal_weight=476 231 43 188 155 245 80 57 165 131 84 40 80 47 45 85 44 49
internal_count=476 231 43 188 155 245 80 57 165 131 84 40 80 47 45 85 44 49
is_linear=0
shrinkage=0.03


Tree=29
num_leaves=18
num_cat=0
split_feature=832 93 349 831 56 516 410 834 728 101 831 734 95 383 824 57 829
